#include "weights.h"

float dense_weights[11][120] = {
{0.43875226378440857, 0.4787101447582245, 0.17498941719532013, 0.08384068310260773, 0.5642767548561096, 0.028165536001324654, -0.04811517894268036, -0.11120568215847015, 0.18783257901668549, -0.1641792356967926, 0.20573653280735016, -0.16841651499271393, -0.19613192975521088, 0.3557043671607971, -0.05718614161014557, 0.20854194462299347, -0.15591521561145782, -0.1219230517745018, 0.020001644268631935, 0.1759529560804367, 0.38715070486068726, 0.17176617681980133, -0.014297017827630043, 0.507035493850708, -0.09672687202692032, 0.14408822357654572, 0.06806079298257828, 0.4740637540817261, -0.24194705486297607, -0.5965922474861145, -0.08075404167175293, -0.4204309284687042, -0.3446163237094879, 0.28250083327293396, 0.09282232075929642, 0.016008159145712852, 0.12595327198505402, -0.18400490283966064, -0.11138682067394257, 0.25178688764572144, 0.05656879022717476, -0.09985458105802536, -0.31958162784576416, 0.17904752492904663, 0.27673768997192383, 0.3448352515697479, 0.07011979073286057, -0.2948165237903595, -0.11423715949058533, -0.131504625082016, 0.1656227856874466, 0.19766424596309662, -0.17860230803489685, 0.10563816875219345, 0.059776440262794495, -0.21919380128383636, 0.33333083987236023, -0.4570203721523285, 0.02724909782409668, 0.2360832393169403, 0.01946677267551422, 0.08873254060745239, -0.10144367814064026, 0.007307335734367371, -0.05703301727771759, -0.02179202437400818, -0.3476988673210144, -0.31949374079704285, -0.01664585806429386, 0.09649208933115005, -0.46473971009254456, -0.03133239224553108, -0.22303496301174164, -0.1714395135641098, -0.12852656841278076, 0.3455682396888733, -0.061102353036403656, -0.05352179706096649, -0.11967209726572037, 0.0038862868677824736, -0.0589275062084198, -0.15311849117279053, -0.6222288012504578, 0.034875139594078064, -0.18031486868858337, -0.2614767253398895, 0.0014946609735488892, -0.17440088093280792, -0.18619416654109955, -0.17676138877868652, 0.5003882646560669, -0.11620568484067917, 0.12688912451267242, -0.028786353766918182, -0.14724326133728027, -0.12984560430049896, 0.10286147892475128, 0.3200257122516632, -0.18145351111888885, -0.48026812076568604, 0.004497400484979153, -0.47660306096076965, 0.37259969115257263, -0.08977175503969193, -0.23245206475257874, 0.049187496304512024, 0.11723486334085464, 0.392217755317688, -0.15224163234233856, 0.16820307075977325, 0.16384568810462952, -0.1034078374505043, 0.015138521790504456, 0.004498520400375128, -0.1636044830083847, 0.449758917093277, 0.09294123947620392, 0.32250192761421204, 0.014205798506736755, -0.1783180981874466, },
{-0.3908611834049225, -0.1280304342508316, 0.08598990738391876, -0.409559965133667, -0.3435739576816559, -0.004124930128455162, 0.03941364586353302, -0.1571459323167801, 0.037343963980674744, 0.07300229370594025, 0.1264682561159134, 0.02253049612045288, -0.1130075678229332, -0.264059841632843, -0.1007281243801117, -0.06541039049625397, -0.06671128422021866, -0.14282789826393127, -0.16697663068771362, -0.0669187605381012, -0.31709495186805725, -0.0956614762544632, -0.056124284863471985, -0.366958349943161, -0.1601896584033966, -0.11799629777669907, -0.3553220331668854, -0.15980792045593262, 0.43571171164512634, 0.42826852202415466, 0.18252113461494446, -0.11403389275074005, -0.15012739598751068, -0.083368219435215, -0.011588306166231632, 0.2232375591993332, -0.11863961815834045, -0.17501221597194672, -0.19280262291431427, -0.20649021863937378, -0.05428031086921692, -0.13930627703666687, 0.13699257373809814, -0.16959580779075623, -0.37917134165763855, -0.0548715814948082, 0.06034025922417641, 0.24531403183937073, -0.07123108208179474, 0.06447593867778778, 0.08526942133903503, 0.1529676765203476, -0.17786750197410583, -0.2969270646572113, 0.049752864986658096, -0.010521174408495426, -0.05006684735417366, 0.30378925800323486, -0.061659470200538635, -0.21887822449207306, -0.0024290233850479126, 0.32758548855781555, 0.253240704536438, 0.0203515887260437, -0.05127860605716705, -0.14184436202049255, 0.3803534507751465, 0.1476992666721344, 0.002973271068185568, -0.35479965806007385, 0.30248308181762695, -0.14327380061149597, -0.15313859283924103, -0.03329138457775116, -0.003091782331466675, -0.48517218232154846, -0.32554471492767334, 0.05623854696750641, -0.10367469489574432, -0.07420320808887482, 0.20388741791248322, -0.09651384502649307, 0.11164960265159607, -0.13767410814762115, 0.17025476694107056, 0.4727832078933716, -0.17796093225479126, -0.19800055027008057, 0.08750875294208527, 0.1723572462797165, -0.3353775441646576, -0.13756021857261658, 0.11265142261981964, -0.06047164276242256, -0.14658603072166443, 0.2997429072856903, -0.07868017256259918, -0.30993399024009705, -0.13138261437416077, 0.0004955707699991763, 0.00018834459478966892, -0.07193717360496521, -0.020219704136252403, -0.036635302007198334, -0.07133946567773819, -0.022809237241744995, 0.18326273560523987, -0.02029760368168354, -0.019677214324474335, -0.14359378814697266, -0.00034064005012623966, 0.15436957776546478, -0.3625349998474121, 0.3336595594882965, 0.035553619265556335, -0.39159920811653137, 0.060345783829689026, 0.007181253749877214, 0.11251112073659897, 0.10540051758289337, },
{0.2003692239522934, 0.23191475868225098, 0.06820471584796906, 0.008170033805072308, 0.007352555636316538, -0.18037013709545135, -0.13461844623088837, -0.04183511435985565, -0.19388556480407715, 0.12985427677631378, 0.1284959316253662, -0.10929378867149353, 0.13562338054180145, -0.24440255761146545, -0.20767487585544586, -0.06632991135120392, 0.17660468816757202, -0.10412498563528061, 0.22349582612514496, 0.26628515124320984, -0.019442494958639145, -0.10966815054416656, -0.16861122846603394, -0.07607613503932953, -0.07422193884849548, 0.010104775428771973, 0.12393845617771149, -0.15701475739479065, -0.25661012530326843, 0.04706057533621788, -0.19032059609889984, 0.1587250977754593, -0.19941076636314392, -0.08893996477127075, 0.1380898505449295, -0.2868087887763977, 0.05072502791881561, -0.17446202039718628, 0.18311773240566254, 0.0389796607196331, -0.1803482472896576, -0.20058035850524902, -0.16385802626609802, 0.09135810285806656, 0.012059041298925877, 0.142366424202919, -0.14526395499706268, -0.25252294540405273, -0.20502720773220062, -0.14260895550251007, -0.1557137817144394, -0.09406282752752304, -0.007713496685028076, 0.2282685488462448, 0.20611175894737244, 0.2703011631965637, 0.09544037282466888, -0.028038963675498962, -0.20396554470062256, 0.03290880471467972, -0.01485353708267212, -0.15476326644420624, 0.2388816624879837, 0.007788762450218201, -0.10928128659725189, 0.20028690993785858, -0.115827776491642, 0.25466758012771606, -0.11400094628334045, -0.06524907052516937, 0.07395323365926743, 0.08726298063993454, 0.1659797579050064, 0.06986774504184723, -0.03618417680263519, 0.07285108417272568, 0.03708205372095108, -0.2666371166706085, 0.13158385455608368, 0.08234132081270218, -0.1033027246594429, -0.17760686576366425, 0.17868061363697052, -0.20209406316280365, -0.23120222985744476, -0.17986451089382172, -0.13093054294586182, 0.0609440952539444, -0.17626874148845673, -0.0410236120223999, -0.14229081571102142, 0.11096186935901642, -0.19509750604629517, 0.25630176067352295, -0.201692596077919, 0.27661392092704773, -0.23072965443134308, -0.2588578164577484, -0.07254976034164429, 0.07876783609390259, -0.25282731652259827, 0.010892316699028015, -0.027125811204314232, 0.30373603105545044, -0.22947832942008972, -0.028119131922721863, -0.17178697884082794, -0.04238719120621681, -0.10299395769834518, -0.1424551159143448, 0.18586686253547668, -0.16248218715190887, 0.036441270262002945, -0.015509196557104588, 0.19205592572689056, 0.19300885498523712, 0.019881710410118103, 0.21954232454299927, -0.1375560462474823, -0.0050797611474990845, },
{-0.15026693046092987, 0.17609235644340515, 0.05829654633998871, 0.13825233280658722, 0.06940504908561707, 0.14737507700920105, -0.10262466222047806, -0.15031678974628448, -0.2024352103471756, -0.07105019688606262, 0.11039519309997559, 0.029593735933303833, -0.19556637108325958, 0.09884423762559891, -0.13713054358959198, -0.20874425768852234, 0.13448625802993774, -0.12709099054336548, 0.21270331740379333, -0.012628911063075066, 0.17406076192855835, 0.19545875489711761, 0.11813800781965256, 0.13555003702640533, 0.20683293044567108, -0.1242760494351387, 0.0775148868560791, 0.021996190771460533, 0.14556661248207092, 0.012845569290220737, 0.030857719480991364, -0.18319295346736908, -0.24375027418136597, -0.10731780529022217, 0.09013183414936066, -0.2164485603570938, -0.02020852267742157, 0.19181273877620697, 0.1537468284368515, 0.15682452917099, 0.10475123673677444, 0.13843558728694916, -0.232294499874115, 0.0662359893321991, -0.07112251222133636, 0.035538896918296814, 0.03401247411966324, -0.13257715106010437, 0.0052058398723602295, -0.05833650752902031, 0.11452311277389526, -0.022764235734939575, 0.1476219743490219, 0.04370008409023285, 0.0738535076379776, 0.20794188976287842, 0.10258442163467407, 0.06901619583368301, -0.1549793779850006, -0.1466185599565506, 0.1213018149137497, -0.11804420500993729, 0.1962125599384308, 0.04609392583370209, -0.008746698498725891, -0.20865705609321594, -0.22108811140060425, -0.07878315448760986, -0.04726891964673996, 0.051214706152677536, 0.07174830138683319, -0.21274803578853607, 0.17164477705955505, -0.16871832311153412, 0.11040480434894562, -0.19475924968719482, 0.1971304714679718, -0.11833927780389786, 0.10352008044719696, 0.23552796244621277, 0.19387571513652802, 0.13527175784111023, 0.0622829869389534, 0.02881765365600586, -0.19792868196964264, -0.19755379855632782, 0.2063436359167099, -0.1380784809589386, 0.08230613172054291, -0.061953723430633545, 0.0968988910317421, 0.15172456204891205, -0.19862137734889984, 0.19931964576244354, -0.18349215388298035, 0.01095171645283699, -0.06393022835254669, 0.06655018031597137, 0.14936001598834991, 0.08993181586265564, 0.037404727190732956, -0.0848495364189148, 0.09329275786876678, 0.19320166110992432, -0.20997822284698486, 0.1924210637807846, 0.068951815366745, -0.23032456636428833, 0.18296439945697784, -0.09849447011947632, 0.13629959523677826, -0.1022670790553093, 0.04857484996318817, -0.022123176604509354, -0.1315421760082245, -0.07424303889274597, -0.05947025120258331, -0.07284701615571976, -0.11849633604288101, -0.058281078934669495, },
{0.15613774955272675, 0.0843372493982315, -0.16986897587776184, 0.08313777297735214, 0.14405493438243866, 0.06086055561900139, 0.06595151126384735, 0.13836570084095, 0.17921097576618195, 0.11058638244867325, 0.1734677255153656, -0.19775104522705078, -0.11338162422180176, 0.20892181992530823, 0.17821522057056427, -0.03221355378627777, -0.08743560314178467, 0.16620688140392303, 0.04936842620372772, 0.2346864491701126, -0.1309167742729187, -0.15598271787166595, 0.19835390150547028, -0.16131681203842163, 0.01970541477203369, 0.06978739798069, -0.10021691769361496, 0.133952334523201, -0.062080223113298416, 0.06773587316274643, -0.19935718178749084, -0.08849923312664032, 0.020228099077939987, 0.10110209882259369, -0.2283165007829666, 0.22296375036239624, -0.03128883242607117, -0.19823965430259705, -0.036965519189834595, 0.026707053184509277, -0.07504136860370636, -0.15614575147628784, -0.1238703578710556, -0.04863438382744789, -0.21174077689647675, 0.03719032183289528, 0.14438487589359283, 0.147359237074852, -0.14297527074813843, -0.08742555975914001, 0.07025682181119919, 0.03354713320732117, -0.1762489527463913, -0.180177241563797, 0.15948882699012756, 0.13053350150585175, 0.06141294911503792, -0.04232330247759819, 0.01941274106502533, -0.13753977417945862, -0.11537627875804901, 0.14380697906017303, -0.1667548567056656, 0.14243052899837494, -0.005820274353027344, -0.17936328053474426, -0.09269089251756668, 0.12119781225919724, 0.027089035138487816, 0.10097645968198776, 0.03924838826060295, 0.1565343141555786, 0.08171281218528748, -0.17389309406280518, 0.20351196825504303, 0.10795162618160248, 0.13698865473270416, 0.09679722040891647, -0.08226506412029266, 0.02190948836505413, -0.04847311973571777, 0.20543581247329712, 0.009937074035406113, 0.002931058406829834, -0.15569530427455902, -0.04844697192311287, 0.10337243974208832, -0.202214777469635, -0.1705772578716278, -0.050537168979644775, 0.004598158411681652, -0.20337268710136414, 0.1957545131444931, -0.19969768822193146, -0.06014673411846161, -0.1338135302066803, 0.10037027299404144, 0.16773290932178497, -0.13204649090766907, 0.09793863445520401, 0.07158931344747543, 0.041241925209760666, 0.11484279483556747, 0.06329228729009628, 0.11262805014848709, -0.08021688461303711, -0.031729016453027725, 0.11373430490493774, -0.06033439561724663, -0.18739844858646393, 0.18619579076766968, 0.06188921630382538, 0.012035643681883812, 0.26963871717453003, 0.07134588062763214, 0.1058962494134903, 0.15801094472408295, 0.13086405396461487, 0.201691672205925, -0.06423227488994598, },
{-0.18533816933631897, -0.14228884875774384, 0.017752036452293396, -0.07172121852636337, 0.042689137160778046, -0.1593441218137741, -0.046381875872612, -0.18120329082012177, -0.20873379707336426, -0.1873432695865631, -0.11367735266685486, 0.15515275299549103, 0.19652245938777924, 0.20575712621212006, -0.16504500806331635, -0.1145390197634697, 0.12772412598133087, -0.13365137577056885, -0.05473126843571663, -0.14416715502738953, 0.1785416305065155, -0.16241365671157837, -0.08255882561206818, -0.18357235193252563, -0.1744661033153534, 0.03321613371372223, 0.03575669229030609, 0.13790611922740936, 0.1761794537305832, 0.09830167144536972, 0.10497140884399414, 0.08438891917467117, 0.1031232550740242, 0.14466997981071472, -0.15193316340446472, 0.16130080819129944, -0.15352296829223633, -0.15401771664619446, -0.21067513525485992, -0.24276477098464966, 0.2052493393421173, -0.09403062611818314, 0.0915067121386528, -0.12150343507528305, 0.057221632450819016, 0.13590192794799805, 0.06762291491031647, 0.19127322733402252, -0.11326238512992859, 0.020548122003674507, -0.0591547004878521, -0.01881866157054901, -0.09750260412693024, 0.08104251325130463, -0.18586331605911255, -0.20404304563999176, 0.06370854377746582, -0.1999090313911438, -0.1342715322971344, 0.061033014208078384, 0.026991933584213257, 0.16211920976638794, -0.07474420964717865, -0.14405182003974915, 0.004142582416534424, 0.10740016400814056, 0.0302024744451046, -0.28019917011260986, 0.023821378126740456, 0.1217234656214714, -0.27918678522109985, 0.09077141433954239, 0.15710191428661346, -0.02591751515865326, -0.0990719124674797, 0.12348061800003052, -0.05338531360030174, 0.08025563508272171, 0.029322996735572815, -0.13019418716430664, 0.019359156489372253, -0.11806337535381317, -0.010896311141550541, -0.15875978767871857, 0.11612911522388458, -0.09410687536001205, -0.11817391216754913, -0.19240039587020874, 0.19823940098285675, -0.1576513797044754, -0.06765442341566086, -0.2022067755460739, -0.11140549182891846, 0.018295619636774063, -0.20955359935760498, -0.1839754283428192, 0.15954390168190002, 0.1939743459224701, 0.01409938931465149, -0.08083273470401764, 0.04484053701162338, -0.02403366193175316, -0.05509449169039726, -0.04009100794792175, 0.011944425292313099, -0.13736306130886078, 0.04500223696231842, -0.14739717543125153, 0.1358485370874405, 0.08939166367053986, -0.03494134172797203, -0.15575091540813446, 0.1497710943222046, 0.17498145997524261, -0.16082674264907837, -0.1161762923002243, -0.05268673598766327, 0.08151790499687195, -0.0750684142112732, -0.20163290202617645, },
{0.157821387052536, 0.02315293624997139, -0.20605754852294922, -0.017633512616157532, -0.14410915970802307, 0.16579221189022064, 0.051879867911338806, -0.011654585599899292, 0.04078640043735504, 0.14243943989276886, -0.19782854616641998, 0.06714741885662079, -0.08658638596534729, 0.06921039521694183, -0.118243508040905, -0.13985827565193176, 0.1571318358182907, -0.05638040602207184, -0.04985750466585159, -0.06456028670072556, -0.1786556839942932, -0.13456633687019348, 0.07067275047302246, 0.16677747666835785, -0.04186148941516876, 0.04095877707004547, -0.022250909358263016, 0.15341119468212128, 0.08892200142145157, 0.05087552219629288, 0.020956572145223618, -0.029246358200907707, -0.02313118241727352, 0.15306717157363892, 0.21348936855793, 0.026224693283438683, 0.2017911821603775, 0.17273156344890594, -0.010448679327964783, 0.152491495013237, 0.16147302091121674, -0.019570201635360718, 0.10305485874414444, 0.05293683707714081, 0.11002349853515625, 0.025591280311346054, 0.06931035220623016, -0.12865988910198212, -0.0005363672971725464, 0.07717566192150116, -0.07046736031770706, -0.01374875009059906, 0.1816621571779251, 0.060929279774427414, 0.14926110208034515, 0.11128237843513489, -0.19183263182640076, 0.06118786334991455, 0.13669122755527496, 0.17451289296150208, -0.1044849157333374, -0.13713593780994415, -0.026928454637527466, -0.15412405133247375, 0.09316177666187286, -0.02214275300502777, 0.11929766833782196, 0.024035774171352386, 0.14442847669124603, -0.1070440262556076, -0.002691244473680854, 0.06367325037717819, 0.031195921823382378, -0.21040035784244537, -0.1312202513217926, -0.18650099635124207, -0.17586231231689453, 0.1442328542470932, -0.1287696361541748, 0.11377234756946564, -0.07320022583007812, -0.1677509993314743, 0.018258705735206604, 0.14564211666584015, 0.0658356249332428, 0.003550059162080288, -0.048746705055236816, 0.13095723092556, -0.11281520128250122, -0.20268797874450684, 0.08153556287288666, 0.11894683539867401, -0.18204335868358612, 0.06042493134737015, -0.003919810056686401, 0.2020353078842163, -0.11869199573993683, -0.1212528645992279, -0.11982951313257217, 0.13412922620773315, 0.2056303173303604, 0.18758223950862885, -0.17229892313480377, -0.14412936568260193, -0.01494284812361002, 0.09641806781291962, -0.16807232797145844, 0.17726723849773407, -0.14187483489513397, -0.12363666296005249, 0.01757395640015602, -0.12731660902500153, 0.17645084857940674, -0.10222145915031433, 0.050945982336997986, 0.149673193693161, -0.09335429966449738, 0.011688034050166607, 0.13748745620250702, 0.026077985763549805, },
{0.017505034804344177, -0.02326321043074131, 0.009929448366165161, 0.0748598575592041, 0.04881851002573967, 0.015292583964765072, -0.1588197946548462, -0.18666665256023407, 0.04185132682323456, -0.12534421682357788, 0.00697131734341383, -0.15959566831588745, -0.0904892086982727, -0.1938997060060501, -0.09705812484025955, -0.009573191404342651, 0.1489763855934143, 0.05165909230709076, -0.2131635695695877, -0.14939796924591064, 0.13394270837306976, 0.08938468992710114, 0.010165761224925518, 0.17719316482543945, -0.12303416430950165, -0.10222279280424118, 0.1817406564950943, -0.07294890284538269, -0.17456401884555817, 0.1004677265882492, -0.07208732515573502, 0.16280847787857056, 0.15328387916088104, -0.11938145011663437, -0.02393750660121441, -0.004514842759817839, -0.06584256887435913, -0.14201681315898895, -0.06843212246894836, 0.074564129114151, -0.32269904017448425, -0.05343306064605713, 0.14529670774936676, 0.13975639641284943, -0.018237890675663948, 0.04973219335079193, 0.07406570017337799, 0.03635500743985176, 0.12648262083530426, -0.04432494193315506, 0.040871817618608475, -0.19712992012500763, -0.06260240077972412, -0.10114136338233948, -0.10414103418588638, -0.08726929873228073, 0.06709858775138855, 0.14877274632453918, -0.026666253805160522, -0.0949007049202919, 0.018317848443984985, -0.0013561301166191697, 0.16630509495735168, 0.022348180413246155, -0.14983969926834106, -0.1674482226371765, 0.07377815991640091, 0.1548788994550705, 0.18210485577583313, 0.06318198144435883, 0.21482707560062408, 0.06663267314434052, 0.09838467091321945, -0.19256438314914703, -0.16677474975585938, 0.12012997269630432, 0.12883736193180084, -0.073947012424469, -0.20908862352371216, 0.06117577105760574, -0.04673756659030914, 0.1627613753080368, -0.05379205569624901, -0.025152042508125305, 0.08124364912509918, 0.21713389456272125, -0.028722435235977173, 0.04119710624217987, -0.11116378754377365, -0.14910531044006348, 0.03412099927663803, -0.16481758654117584, -0.16397210955619812, -0.126863032579422, 0.05416981875896454, -0.0570458322763443, 0.12077954411506653, -0.008437189273536205, 0.01072297990322113, 0.05708218365907669, -0.16003058850765228, 0.15613721311092377, 0.20438064634799957, 0.032461971044540405, 0.17620909214019775, -0.19671565294265747, 0.10398053377866745, 0.03348143771290779, -0.03500370308756828, 0.11184705793857574, 0.08939393609762192, -0.18844735622406006, -0.24401059746742249, -0.26272955536842346, -0.008886918425559998, -0.06716115027666092, -0.14919966459274292, 0.12962180376052856, -0.053169410675764084, -0.15798038244247437, },
{2.0110888481140137, 1.2419263124465942, 0.04384736716747284, 2.263669967651367, 1.9936516284942627, 0.8046721816062927, -0.030856549739837646, -0.1717507243156433, 0.1984408050775528, -0.19094005227088928, 0.014594887383282185, 0.14906536042690277, 0.11953867971897125, 1.6600919961929321, -0.016672402620315552, 0.07995288074016571, -0.9917416572570801, 0.14097188413143158, -0.1861913800239563, -0.1337442845106125, 1.744411587715149, -0.04741470515727997, -0.15979412198066711, 1.4761383533477783, 0.08437834680080414, -0.019333451986312866, 1.2985179424285889, 1.8264235258102417, -1.6948935985565186, -2.0045952796936035, -0.02393590845167637, -0.46755552291870117, -0.008018292486667633, 0.7417899370193481, -0.27760839462280273, -0.2719675898551941, -0.04194660484790802, -0.04399099946022034, 0.18015308678150177, 1.1071929931640625, -0.15095558762550354, 0.029713645577430725, -1.0451037883758545, 0.683458149433136, 1.4155397415161133, -0.4895789623260498, 0.2116493582725525, -0.7674866914749146, 0.16245515644550323, 0.15572650730609894, 0.04295267164707184, 0.05569462478160858, 0.010606035590171814, 0.6051658987998962, 0.2212868630886078, -0.5657021403312683, -0.16556023061275482, -0.7383148670196533, 0.13912035524845123, 1.3342547416687012, -0.18929064273834229, -0.4850526452064514, -1.3064666986465454, 0.01888483762741089, 0.1420203298330307, 0.03237636387348175, -1.1463501453399658, -0.7106086611747742, 0.031207721680402756, 2.17976450920105, -0.9503742456436157, 0.5442453026771545, 0.27928709983825684, -0.16082383692264557, 0.15537436306476593, 1.9431008100509644, 1.0820368528366089, -0.27985721826553345, 0.19886155426502228, 0.37193912267684937, 0.07376129925251007, 0.14867885410785675, -2.0188417434692383, -0.10536039620637894, -0.8160707354545593, -1.4767440557479858, 0.06548018753528595, -0.15782997012138367, 0.2054130584001541, -0.20704185962677002, 1.849824070930481, 0.022084742784500122, -0.11643647402524948, -0.4818379878997803, 0.20442067086696625, -1.2515807151794434, 0.4462083876132965, 1.9828147888183594, -0.08320462703704834, -1.1730918884277344, -0.5466617345809937, -1.4123817682266235, 0.5419764518737793, 0.273471474647522, 0.3858148455619812, -0.07922735810279846, -0.1767399162054062, 1.1491501331329346, 0.008726231753826141, -0.1884266436100006, 0.17725233733654022, -0.1522659808397293, 0.7834380269050598, 0.5858641266822815, 0.1521776169538498, 1.8158155679702759, 0.03869740664958954, 0.41631489992141724, -0.14018382132053375, -0.08017809689044952, },
{1.0767019987106323, 0.830391526222229, 0.03375627100467682, 1.436424732208252, 1.6538844108581543, 0.6537788510322571, 0.07645575702190399, 0.18149791657924652, -0.20556342601776123, 0.17251081764698029, -0.16715112328529358, 0.15373478829860687, -0.13872751593589783, 0.8998837471008301, 0.0871971994638443, 0.15076713263988495, -0.7346572875976562, 0.010010018944740295, -0.0001957548374775797, 0.0221147071570158, 1.0715820789337158, 0.08930768072605133, -0.009216194041073322, 1.045240044593811, -0.0947813019156456, 0.07908128201961517, 0.7917518019676208, 1.3179820775985718, -0.969345211982727, -1.4428749084472656, 0.16752667725086212, -0.4968796372413635, -0.5647278428077698, 0.5813377499580383, -0.42367440462112427, -0.08568556606769562, 0.13396017253398895, 0.09288991987705231, 0.17792780697345734, 0.5818835496902466, -0.1788560301065445, 0.05625443160533905, -0.5429663062095642, 0.5261976718902588, 0.8635361790657043, -0.5937938094139099, 0.11326208710670471, -0.48485055565834045, 0.0920596569776535, -0.030456000939011574, 0.17766670882701874, 0.19646646082401276, 0.104631707072258, 0.3608238697052002, 0.18067845702171326, -0.5087548494338989, -0.1604965180158615, -0.5981780290603638, -0.17309537529945374, 0.9656543731689453, 0.07867367565631866, -0.14927753806114197, -0.504197359085083, 0.1595994085073471, 0.17081253230571747, -0.0892002284526825, -1.0196722745895386, -0.2618717551231384, 0.10276255011558533, 1.1111407279968262, -0.5751692652702332, 0.13711008429527283, 0.1131281852722168, 0.05536414682865143, 0.15093980729579926, 1.3795182704925537, 0.696977972984314, -0.060519590973854065, 0.20980943739414215, 0.27736955881118774, -0.1797245889902115, -0.2133932113647461, -1.0538564920425415, -0.14586932957172394, -0.3170824348926544, -0.700565755367279, -0.11358434706926346, -0.16719666123390198, 0.15928764641284943, -0.12305089831352234, 1.172119140625, 0.06268520653247833, -0.1431465446949005, 0.03157650679349899, 0.06022791564464569, -0.7844095230102539, 0.5101737380027771, 1.227085828781128, 0.15823902189731598, -0.9018385410308838, -0.09038189053535461, -1.1661336421966553, 0.4037998616695404, -0.012932742945849895, 0.11307105422019958, 0.09807957708835602, -0.04091973975300789, 0.5220735669136047, 0.08794752508401871, -0.13893583416938782, 0.3725873827934265, -0.18614819645881653, 0.25620734691619873, 0.4815574586391449, -0.12099047005176544, 0.8726176619529724, 0.11970953643321991, 0.24036520719528198, -0.06557132303714752, -0.17305485904216766, },
{1.254818081855774, 1.33086097240448, -0.11465081572532654, 0.4771820902824402, 1.5079129934310913, -0.7213169932365417, 0.16515140235424042, 0.14258860051631927, -0.20969213545322418, 0.20905666053295135, 0.04759444296360016, 0.1638024002313614, 0.12832798063755035, 0.6232233047485352, -0.07140742242336273, 0.006185054779052734, 0.8999826312065125, -0.07851153612136841, -0.014195307157933712, 0.14689090847969055, 1.6539695262908936, -0.02635832130908966, -0.6169477701187134, 1.8380827903747559, 0.07906852662563324, -0.025782912969589233, -0.5840925574302673, 1.2016652822494507, -0.3670116662979126, -0.7968717217445374, 0.05735344812273979, -1.4747223854064941, -0.9333912134170532, 0.5906586647033691, 1.422395944595337, -1.1340020895004272, -0.15979665517807007, 0.01200471818447113, -0.1300327032804489, 0.6354279518127441, -1.097656488418579, 0.03632281720638275, -1.1731036901474, 1.6897711753845215, 1.421852707862854, 1.4457796812057495, 0.7107108235359192, -1.5275160074234009, 0.03987281024456024, -0.16098619997501373, -0.1305047869682312, 0.09058432281017303, -0.0672403872013092, 1.356202244758606, -0.0826764777302742, -0.42534199357032776, 1.474890947341919, -1.7004876136779785, 0.10048459470272064, 0.9084382057189941, -0.14955738186836243, -1.0843721628189087, 0.8225691914558411, 0.16854678094387054, 0.1768062859773636, 0.1452612727880478, -1.195166826248169, -1.9378312826156616, -1.4092769622802734, 0.8287631869316101, -2.1834969520568848, 1.7500953674316406, 0.5020922422409058, 0.0253952294588089, 0.10976652801036835, 1.4649240970611572, -0.3485802412033081, -1.4436899423599243, -0.19105513393878937, 1.6035720109939575, -0.051819875836372375, 0.18297727406024933, -0.6067397594451904, 0.026996180415153503, -1.2576874494552612, -2.328322172164917, -0.19119325280189514, 0.14772076904773712, 0.17415432631969452, 0.031294792890548706, 1.1850203275680542, 0.10123683512210846, -0.06047268211841583, 1.116949200630188, 0.07895316183567047, 0.7690303325653076, -0.7201923131942749, 1.0884599685668945, 0.1768084317445755, -1.2844996452331543, -1.2736599445343018, -0.9636667966842651, 1.0770952701568604, 0.7287253737449646, -1.6441153287887573, -0.1977246105670929, 0.06739132851362228, -0.48211485147476196, -0.1887051910161972, -0.13075214624404907, 1.5016229152679443, -0.009038150310516357, 1.5577081441879272, 0.03718878701329231, -0.04108770191669464, 1.1527094841003418, -0.1387595534324646, 1.7283413410186768, -1.5528802871704102, -0.024085476994514465, },

};

float dense_bias[120] = { -0.04557201266288757, -0.10122042149305344, 0.0, 0.09335139393806458, 0.023589223623275757, 0.3140464723110199, 0.0, 0.0, 0.0, -0.005624417215585709, 0.006325175520032644, 0.0, 0.0, 0.09620647877454758, 0.0, 0.0, -0.26001235842704773, 0.0, 0.01283608190715313, 0.03723164647817612, 0.008645135909318924, 0.0, 0.11768338829278946, -0.07818447053432465, 0.0, 0.0, 0.02197262831032276, 0.10804848372936249, 0.05840802937746048, -0.10824131965637207, -0.005293415393680334, 0.03693065047264099, 0.06076997146010399, -0.028454255312681198, -0.3109171390533447, 0.20463323593139648, 0.0, 0.0, 0.0, -0.14149035513401031, 0.2790721654891968, 0.0, 0.10297690331935883, -0.15491047501564026, -0.14041882753372192, -0.20187631249427795, -0.18662963807582855, 0.1978248804807663, 0.0, -0.004247614648193121, -0.017146477475762367, 0.0, 0.0, -0.18644960224628448, -0.08244266360998154, -0.18281050026416779, -0.21764901280403137, 0.09508664160966873, 0.0, -0.006269510369747877, 0.0, 0.2337249368429184, -0.30230653285980225, 0.0, 0.0, 0.0, 0.06618218123912811, 0.122198686003685, 0.20495416224002838, 0.08781901746988297, 0.10331741720438004, -0.23469215631484985, -0.23901045322418213, 0.0, 0.0, -0.01128191128373146, 0.10445109754800797, 0.27158695459365845, 0.0, -0.19687992334365845, 0.0, -0.008012654259800911, -0.23783758282661438, 0.0, 0.11845214664936066, 0.1240745559334755, 0.0, 0.0, 0.0, 0.0, 0.0072830189019441605, 0.0, 0.0, -0.26338788866996765, 0.0, -0.34186938405036926, 0.22362299263477325, 0.1128091812133789, 0.0, -0.04035411402583122, 0.18382543325424194, -0.04476745054125786, -0.045582447201013565, -0.16053077578544617, 0.22403675317764282, 0.0, -0.01727096363902092, 0.27442675828933716, -0.01352587342262268, 0.0, -0.14572472870349884, 0.0, -0.1616045981645584, 0.34056150913238525, 0.0, -0.05036609247326851, 0.0, -0.13936513662338257, 0.23561763763427734, 0.0,  };

float dense_1_weights[120][40] = {
{0.11526224762201309, 0.09105642139911652, -0.019475268200039864, 0.19306908547878265, -0.6655310988426208, 0.12290801107883453, 0.11570389568805695, -0.33406126499176025, -0.27408140897750854, 0.34961429238319397, -0.3480131924152374, -0.21021364629268646, 0.1357409954071045, -0.14327587187290192, -0.018890447914600372, -0.296991765499115, -0.3779168426990509, 0.16214212775230408, -0.13397423923015594, -0.2239895761013031, 0.053625285625457764, -0.6157276034355164, -0.3051788806915283, -0.04729296267032623, 0.19162099063396454, -0.5459167957305908, 0.2224065661430359, 0.25775668025016785, -0.18720610439777374, -0.005082570482045412, -0.03534434363245964, -0.27870747447013855, 0.07855869084596634, 0.04847550392150879, -0.2091735452413559, -0.06062278896570206, 0.6628254055976868, 0.090224489569664, -0.4916709363460541, -0.5630789995193481, },
{0.1504698246717453, 0.03273897245526314, 0.15300148725509644, 0.052659858018159866, -0.2116360068321228, -0.137270987033844, 0.09958471357822418, -0.1806141883134842, -0.20608584582805634, 0.19816432893276215, -0.08139585703611374, -0.11768755316734314, -0.3492899537086487, -0.31297776103019714, -0.17840105295181274, -0.38469499349594116, 0.08449330180883408, 0.25184959173202515, -0.011355657130479813, -0.04709825664758682, 0.17463256418704987, -0.170074924826622, -0.2501191794872284, -0.06558152288198471, 0.1774953156709671, -0.0848902091383934, -0.025324633345007896, 0.2759974002838135, 0.05095230042934418, 0.09617970138788223, 0.179269939661026, -0.1469433456659317, -0.005726339295506477, 0.06641577184200287, 0.1417752057313919, -0.1922406703233719, 0.05618668720126152, 0.17753085494041443, -0.22266629338264465, -0.1271713674068451, },
{-0.04319670796394348, -0.007776990532875061, -0.11811567842960358, 0.05768349766731262, 0.1902737021446228, -0.10780749469995499, 0.14940109848976135, 0.1160283088684082, 0.028699547052383423, 0.13117820024490356, -0.06346938014030457, -0.18380120396614075, -0.09643860906362534, 0.11519941687583923, -0.1637267768383026, -0.10803044587373734, 0.11352139711380005, 0.08551540970802307, 0.15404382348060608, 0.1777225136756897, 0.15243488550186157, 0.12004289031028748, 0.18509334325790405, -0.1459496021270752, 0.14877790212631226, -0.1757490038871765, -0.16358959674835205, -0.02290467917919159, -0.09494248777627945, -0.11404795944690704, -0.029525473713874817, -0.1489756852388382, 0.1485142707824707, -0.15981155633926392, 0.050547778606414795, 0.19253242015838623, 0.10956481099128723, -0.07296503335237503, 0.057128965854644775, 0.16679054498672485, },
{-0.044456545263528824, 0.17412033677101135, -0.1454252004623413, 0.1522783637046814, -0.5408385396003723, -0.12588198482990265, 0.09770403057336807, -0.35061025619506836, 0.10833696275949478, 0.2350340485572815, -0.2754831612110138, -0.09019366651773453, 0.23802056908607483, 0.00384997995570302, -0.23934823274612427, -0.09743288159370422, -0.11760137230157852, 0.3938726782798767, -0.07239119708538055, -0.181399866938591, 0.09581039845943451, -0.22991825640201569, -0.15674005448818207, 0.02409173734486103, 0.24631747603416443, -0.5549494624137878, 0.2352813333272934, 0.039541423320770264, -0.35928189754486084, 0.1804991364479065, -0.14681114256381989, -0.10739735513925552, 0.06034909188747406, 0.05758969113230705, 0.16508378088474274, -0.3025881350040436, 0.7177355885505676, 0.031548283994197845, -0.3667912781238556, -0.16011899709701538, },
{-0.06714483350515366, -0.07566645741462708, -0.15777425467967987, 0.17445166409015656, -0.1481010764837265, -0.021155480295419693, 0.478099524974823, -0.4806494414806366, -0.17680202424526215, -0.14026778936386108, -0.5280230045318604, 0.017401250079274178, 0.07988516241312027, -0.4449290633201599, -0.08805126696825027, -0.7476177215576172, 0.014196223579347134, 0.05112333595752716, -0.16752022504806519, -0.030651234090328217, -0.07931403070688248, -0.16980914771556854, -0.5716695785522461, 0.4068426191806793, 0.31433165073394775, -0.15936662256717682, -0.06796922534704208, 0.1592106819152832, -0.30568867921829224, 0.2708280384540558, 0.11250310391187668, -0.017089050263166428, 0.13147126138210297, -0.1323261857032776, -0.14920556545257568, -0.12773245573043823, 0.5360513925552368, -0.06964942812919617, -0.6373746991157532, -0.07476300001144409, },
{0.013006041757762432, -0.13678143918514252, -0.17450106143951416, 0.04102133959531784, -0.09854289144277573, -0.045843057334423065, 0.19672589004039764, -0.02842452935874462, 0.06787345558404922, -0.06982620805501938, 0.10658103227615356, -0.06940998882055283, 0.002831634134054184, -0.162064328789711, -0.1243625208735466, -0.013591856695711613, 0.12738941609859467, 0.063521608710289, -0.16556136310100555, -0.1789570301771164, -0.09897341579198837, 0.14823345839977264, 0.11822138726711273, 0.07366498559713364, 0.24567094445228577, 0.08811008185148239, 0.11016209423542023, -0.08444566279649734, -0.14085333049297333, 0.07611916214227676, -0.1791553646326065, 0.1922559142112732, -0.08768130093812943, 0.08002371340990067, -0.06985144317150116, -0.1441025286912918, 0.17986762523651123, -0.09569527208805084, 0.17019575834274292, 0.17942465841770172, },
{0.04740685224533081, 0.10991621017456055, 0.00798894464969635, 0.1556517481803894, -0.1229914128780365, 0.03538213670253754, -0.14560988545417786, -0.003832310438156128, 0.15868213772773743, -0.05381080508232117, 0.10371831059455872, -0.1358523666858673, 0.09178999066352844, -0.1708574742078781, 0.0009679049253463745, -0.18330036103725433, 0.15093576908111572, -0.15775182843208313, -0.1377321183681488, 0.05617745220661163, 0.1522243320941925, 0.06736606359481812, 0.08571609854698181, -0.10668008029460907, -0.13568803668022156, -0.17643499374389648, -0.025431260466575623, 0.1193733811378479, -0.17549368739128113, 0.15213465690612793, -0.05731114745140076, -0.04592837393283844, 0.16805711388587952, 0.014560401439666748, 0.14947405457496643, -0.17675983905792236, -0.006385579705238342, 0.13912415504455566, 0.04669450223445892, -0.08513159304857254, },
{-0.05494597554206848, -0.03448773920536041, -0.10507679730653763, -0.05450834333896637, 0.1295102834701538, 0.1840818226337433, -0.004575356841087341, 0.05022481083869934, -0.02767038345336914, 0.11175748705863953, 0.04272840917110443, -0.0673554390668869, -0.03232228755950928, 0.07966196537017822, 0.15836173295974731, 0.07149112224578857, -0.12058094888925552, -0.1812015324831009, -0.03503614664077759, -0.17604845762252808, -0.046881675720214844, -0.1260724514722824, -0.16377580165863037, -0.0421663373708725, -0.004712522029876709, -0.09695261716842651, -0.14377279579639435, 0.17927506566047668, -0.061121851205825806, 0.08326226472854614, 0.09068652987480164, 0.101040780544281, 0.1824701726436615, 0.008232131600379944, 0.17534556984901428, -0.1268153190612793, 0.02656443417072296, 0.15300306677818298, -0.1320808231830597, -0.13646438717842102, },
{0.062311410903930664, 0.14980217814445496, -0.1746792495250702, 0.1675928235054016, 0.06201961636543274, -0.01178385317325592, 0.16053959727287292, 0.08603137731552124, 0.058238059282302856, 0.13138166069984436, -0.013273432850837708, -0.12966518104076385, 0.15453267097473145, 0.10001158714294434, -0.13326649367809296, 0.1148827075958252, -0.017763182520866394, 0.06417965888977051, 0.16328266263008118, -0.16027726233005524, 0.10657134652137756, 0.19203659892082214, -0.11091281473636627, -0.0806439071893692, 0.16813725233078003, 0.13915976881980896, 0.05836251378059387, 0.16185519099235535, -0.03814128041267395, 0.028504952788352966, 0.17722740769386292, -0.0813007652759552, 0.06316438317298889, 0.017463043332099915, -0.17764869332313538, -0.09284707903862, 0.16267845034599304, 0.14677274227142334, -0.1877017468214035, 0.010357081890106201, },
{0.17009812593460083, -0.11184520274400711, 0.1708831936120987, 0.07008059322834015, 0.08897294849157333, -0.1841718852519989, -0.011907060630619526, -0.00911057647317648, 0.1146358847618103, 0.08842943608760834, 0.17673882842063904, 0.1840502768754959, 0.00982206966727972, 0.07532718032598495, 0.19770970940589905, 0.08698875457048416, -0.07534312456846237, -0.08231548964977264, 0.16428110003471375, 0.043095871806144714, 0.02109770104289055, -0.0063764904625713825, 0.05648556351661682, 0.15242420136928558, 0.1330593377351761, 0.0630413144826889, 0.12447864562273026, 0.06625816971063614, -0.1768045425415039, -0.1751805990934372, -0.1842784583568573, -0.17241281270980835, 0.15196605026721954, -0.03471166267991066, 0.02556474693119526, 0.014622963964939117, 0.03754890337586403, 0.07256502658128738, -0.07941918820142746, 0.1000727117061615, },
{0.10711531341075897, 0.165775865316391, 0.0590582937002182, -0.14215874671936035, 0.05577467381954193, -0.10345689952373505, 0.09579054266214371, 0.17182967066764832, -0.06313001364469528, 0.409758985042572, -0.1432538777589798, 0.4795037806034088, 0.07464154809713364, -0.23440727591514587, -0.010829971171915531, 0.006992713548243046, -0.1426674723625183, -0.7432589530944824, 0.424821674823761, 0.2076699435710907, 0.813802182674408, -0.03184432536363602, 0.12361913174390793, -0.37688934803009033, -1.3152985572814941, -0.13692696392536163, -0.17670486867427826, 0.08870420604944229, 0.7981883883476257, -0.4726870059967041, -0.05543191358447075, -0.16077814996242523, 0.12040291726589203, -0.044979605823755264, 0.1795787811279297, 1.0844448804855347, -0.05736655369400978, 0.198226198554039, -0.14235904812812805, -0.12908492982387543, },
{0.0021085143089294434, -0.00612872838973999, 0.10119634866714478, -0.17537973821163177, -0.17163603007793427, 0.045949786901474, -0.15263985097408295, -0.15267729759216309, 0.18966317176818848, -0.12529286742210388, 0.19175872206687927, -0.11172502487897873, -0.15312863886356354, 0.18791335821151733, -0.05168589949607849, 0.0730690062046051, -0.1293194591999054, 0.11886423826217651, -0.08150257170200348, -0.15511319041252136, 0.15252742171287537, -0.15326252579689026, -0.0964750349521637, -0.16601474583148956, 0.011726975440979004, -0.0153006911277771, -0.029688134789466858, 0.07236552238464355, -0.08476541936397552, -0.012533888220787048, 0.13811412453651428, -0.09433253854513168, 0.17003437876701355, -0.18392692506313324, -0.15396098792552948, -0.056572526693344116, 0.1789078712463379, -0.07642465829849243, -0.05012819170951843, -0.16879457235336304, },
{0.15401878952980042, -0.10238954424858093, 0.12729734182357788, 0.17129164934158325, -0.15137889981269836, 0.07959744334220886, 0.09949338436126709, 0.01145656406879425, 0.006552055478096008, 0.09190306067466736, -0.19138889014720917, -0.15437623858451843, 0.04362054169178009, 0.13098138570785522, -0.11860295385122299, 0.11410576105117798, -0.11529458314180374, -0.15042942762374878, 0.19264262914657593, -0.18076542019844055, -0.025368601083755493, 0.16457241773605347, -0.12363104522228241, 0.0686383843421936, -0.149905264377594, 0.07984301447868347, 0.1070113480091095, -0.12043828517198563, 0.14692825078964233, 0.1769503355026245, -0.08920393139123917, -0.027435660362243652, 0.03834155201911926, 0.15164446830749512, 0.10939714312553406, -0.03173902630805969, -0.025894388556480408, -0.008611276745796204, -0.11044834554195404, -0.1663697063922882, },
{-0.0027920627035200596, 0.023881400004029274, -0.13870178163051605, -0.026772497221827507, 0.1967121809720993, 0.20807187259197235, -0.04442879557609558, -0.28502199053764343, -0.10933087766170502, -0.1285916268825531, -0.07258399575948715, -0.20336003601551056, -0.05382427200675011, -0.06463542580604553, 0.018731631338596344, -0.09817392379045486, -0.008924853056669235, -0.092181496322155, 0.06468924880027771, 0.09566791355609894, 0.16734911501407623, 0.11473648995161057, -0.01105894148349762, 0.05729726329445839, -0.11247072368860245, -0.08365392684936523, -0.03135644271969795, -0.02382706105709076, -0.15059404075145721, 0.006321247201412916, -0.07799974083900452, 0.1557942032814026, 0.011483917012810707, 0.09485381096601486, -0.20492824912071228, -0.023776400834321976, -0.1394685059785843, 0.050166696310043335, -0.01661788672208786, -0.04105481877923012, },
{-0.17165574431419373, -0.08986974507570267, -0.05713631212711334, -0.14322610199451447, 0.002433881163597107, -0.037084728479385376, -0.006052732467651367, -0.032172754406929016, -0.1651017963886261, 0.06157532334327698, 0.1007930338382721, 0.13633140921592712, 0.07107657194137573, -0.01862064003944397, -0.02083471417427063, -0.01879221200942993, -0.07296822220087051, -0.0014314353466033936, -0.15623489022254944, -0.13749922811985016, -0.03168080747127533, 0.13346940279006958, 0.17037925124168396, -0.11888458579778671, 0.12529265880584717, -0.054538533091545105, 0.09683701395988464, -0.017375171184539795, 0.05468106269836426, 0.04954242706298828, 0.06860026717185974, -0.030228182673454285, -0.12569931149482727, -0.022844836115837097, 0.08045193552970886, -0.12395548075437546, 0.18454661965370178, 0.08381223678588867, 0.02199646830558777, -0.11747955530881882, },
{0.03372260928153992, 0.17750349640846252, 0.036640897393226624, -0.04397207498550415, 0.09998446702957153, -0.1533726453781128, -0.049937546253204346, -0.190108984708786, 0.17850592732429504, -0.150392547249794, -0.0664554089307785, 0.13615122437477112, -0.06709928810596466, 0.05198447406291962, -0.11414472758769989, 0.18518218398094177, 0.1470552682876587, -0.10089101642370224, -0.01675461232662201, 0.02160707116127014, 0.12322428822517395, -0.11565414816141129, -0.026712745428085327, -0.05211120843887329, -0.03177490830421448, -0.14187361299991608, 0.05411045253276825, -0.03626859188079834, -0.04064647853374481, -0.016841217875480652, -0.10843567550182343, -0.12053269892930984, 0.002530321478843689, -0.060041025280952454, -0.1467815339565277, 0.010743796825408936, -0.07780341804027557, 0.025410577654838562, -0.050249844789505005, 0.023790806531906128, },
{0.10186217725276947, 0.10366876423358917, 0.12127193808555603, -0.0534394271671772, -0.04621719568967819, -0.015105126425623894, -0.12723587453365326, 0.1652567833662033, -0.07927577942609787, -0.015690773725509644, -0.01769697107374668, 0.17025895416736603, -0.024295615032315254, -0.08929559588432312, 0.17201806604862213, 0.1486363708972931, 0.025906112045049667, -0.09527453780174255, -0.025157030671834946, -0.16933514177799225, -0.004824991337954998, 0.07364078611135483, -0.07907295227050781, -0.057900987565517426, -0.13433955609798431, 0.14202667772769928, -0.06697661429643631, 0.052613142877817154, -0.062478289008140564, 0.219803586602211, 0.14866690337657928, 0.13491469621658325, 0.008335726335644722, 0.1737375110387802, -0.1492893099784851, 0.08054381608963013, 0.03560259938240051, -0.16900724172592163, -0.07419276982545853, 0.1328333169221878, },
{-0.1434715837240219, 0.17841985821723938, 0.02807353436946869, 0.09156402945518494, -0.08876240998506546, 0.17861539125442505, 0.07217225432395935, -0.1324566900730133, -0.12321275472640991, -0.0541868656873703, -0.007252410054206848, -0.0036727488040924072, 0.05457976460456848, -0.13087528944015503, -0.14492791891098022, 0.040075644850730896, -0.07115490734577179, 0.13212397694587708, 0.10169857740402222, 0.1580803394317627, 0.06903022527694702, 0.19362488389015198, -0.03005462884902954, 0.08585211634635925, 0.12314450740814209, 0.0973241925239563, 0.18016374111175537, -0.11477577686309814, -0.028016790747642517, -0.018313482403755188, -0.015660017728805542, -0.05934058129787445, -0.135071262717247, 0.175234854221344, 0.10641860961914062, -0.016843348741531372, 0.15718090534210205, -0.11980146914720535, -0.16778336465358734, 0.1419605016708374, },
{0.16799531877040863, -0.044842805713415146, -0.02702810987830162, -0.14524726569652557, 0.06778132915496826, -0.07601405680179596, 0.07354852557182312, 0.1496451497077942, 0.0007605745922774076, 0.20159420371055603, 0.03477638587355614, 0.2859504818916321, 0.03223247453570366, 0.10835283249616623, 0.004811046179383993, 0.022328350692987442, 0.11155864596366882, -0.7751067280769348, 0.7632780075073242, -0.16052070260047913, 0.5681822896003723, 0.35778018832206726, -0.12648741900920868, -0.6891391277313232, -1.1946760416030884, -0.017921017482876778, -0.11819131672382355, 0.07233888655900955, 0.33558574318885803, -0.768702507019043, -0.5109517574310303, 0.09216737002134323, 0.11611071974039078, -0.05181694030761719, -0.09046921879053116, 0.9664187431335449, -0.03472905606031418, 0.2010415643453598, 0.1444225311279297, -0.19999192655086517, },
{0.04132329300045967, 0.16408896446228027, 0.08776374906301498, -0.15931986272335052, 0.10165098309516907, 0.1349688470363617, 0.1267326921224594, 0.40498608350753784, -0.25236260890960693, 0.3029336929321289, -0.262193888425827, 0.2375071793794632, -0.19919328391551971, -0.18366414308547974, -0.1010800376534462, 0.0042761946097016335, -0.1263585090637207, -1.015512228012085, 1.0551886558532715, -0.06958463042974472, 1.3228896856307983, 1.2381466627120972, 0.04001103341579437, -0.638752818107605, -1.2440704107284546, -0.018328912556171417, -0.08463709056377411, -0.05129849165678024, 1.2118029594421387, -1.3770265579223633, -0.667845606803894, 0.13461323082447052, -0.15844100713729858, 0.0258367620408535, -0.13357873260974884, 1.1906906366348267, 0.22385552525520325, 0.06229877099394798, -0.15384690463542938, -0.04497843235731125, },
{0.0984419584274292, -0.005415671970695257, -0.16220106184482574, -0.002831087214872241, -0.07851067930459976, -0.13212324678897858, 0.08410649001598358, -0.10610775649547577, 0.05259782820940018, -0.08718057721853256, -0.24318699538707733, -0.05533568933606148, 0.06323134899139404, -0.13977932929992676, -0.043102968484163284, -0.21770206093788147, -0.040745608508586884, -0.06180819123983383, 0.059727903455495834, -0.14692558348178864, -0.12594284117221832, 0.09858779609203339, -0.184727281332016, 0.10112665593624115, 0.15413250029087067, -0.22691002488136292, -0.08206146210432053, 0.21785134077072144, -0.07971244305372238, -0.05176485702395439, -0.10101035982370377, -0.05823051929473877, -0.1692122519016266, 0.009606906212866306, 0.08874639868736267, 0.08487661182880402, -0.019294388592243195, -0.07532359659671783, -0.05335087701678276, 0.08305221050977707, },
{-0.0708247497677803, 0.12442612648010254, -0.09447728097438812, 0.08260560035705566, 0.12843936681747437, -0.06212890148162842, -0.008688181638717651, 0.10381349921226501, -0.06126414239406586, 0.036727651953697205, -0.0023822039365768433, -0.06703312695026398, -0.07703585177659988, 0.08811819553375244, -0.015955641865730286, 0.022900938987731934, -0.035644471645355225, -0.019999176263809204, -0.12666726112365723, -0.09349031001329422, 0.09918355941772461, -0.10403110086917877, -0.031584739685058594, 0.018755778670310974, 0.023414984345436096, -0.1459689438343048, 0.00015988945960998535, 0.12968522310256958, 0.12371769547462463, -0.07823880016803741, 0.0070152729749679565, 0.0006158947944641113, -0.13818055391311646, 0.16095927357673645, -0.052589163184165955, 0.06677296757698059, -0.14379781484603882, -0.07992389798164368, -0.028791844844818115, 0.1317463517189026, },
{0.164344921708107, 0.010517077520489693, 0.10057410597801208, -0.2133656144142151, -0.14822918176651, -0.013689815998077393, -0.08724436163902283, 0.10754674673080444, 0.002421477809548378, -0.15479183197021484, 0.08978410810232162, -0.024439984932541847, 0.14250534772872925, 0.1098935678601265, 0.13102540373802185, 0.14792264997959137, -0.012749727815389633, 0.06615550071001053, -0.12728674709796906, 0.13136130571365356, -0.12189773470163345, 0.1637984961271286, -0.18572302162647247, 0.14340631663799286, 0.06247774139046669, -0.02826967090368271, 0.017017843201756477, 0.0998283103108406, -0.001646518474444747, 0.16579866409301758, -0.032926294952631, 0.1903824359178543, 0.04497161880135536, -0.010363579727709293, 0.020839272066950798, -0.1955777108669281, 0.03821847587823868, -0.15351994335651398, -0.05728497728705406, -0.07274682819843292, },
{-0.16978242993354797, -0.16362665593624115, 0.0336652547121048, -0.16924144327640533, -0.1608276218175888, -0.002140818163752556, -0.01283965539187193, -0.17369143664836884, -0.09873607754707336, -0.19546231627464294, -0.030445367097854614, -0.011288076639175415, -0.09473634511232376, -0.13356827199459076, 0.07457675039768219, -0.19297359883785248, 0.10210125893354416, -0.12270772457122803, 0.15053768455982208, -0.10323353856801987, 0.1668061912059784, -0.1840439885854721, -0.018697546795010567, -0.03930685296654701, 0.14489030838012695, -0.12370651960372925, 0.043811820447444916, 0.11247915029525757, 0.1132970079779625, 0.213485985994339, -0.1669112592935562, 0.20187555253505707, -0.1291881501674652, 0.10050848871469498, 0.052327223122119904, -0.08798960596323013, 0.21308891475200653, -0.09991741925477982, -0.11516623198986053, -0.07742507010698318, },
{0.0001719743013381958, -0.06986433267593384, 0.06203484535217285, 0.10631731152534485, -0.17107369005680084, 0.0005565732717514038, -0.014185965061187744, -0.12766382098197937, 0.091641366481781, 0.006157130002975464, 0.08787620067596436, -0.03427046537399292, 0.05208808183670044, 0.012682870030403137, 0.09710073471069336, -0.12264735996723175, -0.01280452311038971, -0.034834012389183044, 0.04494251310825348, -0.16744005680084229, 0.1121056079864502, 0.15351614356040955, 0.13987812399864197, -0.11969195306301117, 0.09880641102790833, -0.10303831845521927, 0.04553842544555664, -0.189573734998703, 0.0608191192150116, 0.09993386268615723, 0.17628923058509827, 0.16849201917648315, -0.09686318784952164, -0.12313596904277802, -0.0836290493607521, 0.03252682089805603, 0.18470391631126404, -0.11354983597993851, -0.029090523719787598, -0.06254608929157257, },
{-0.0771656334400177, -0.11390025913715363, 0.01692996919155121, 0.14928147196769714, -0.020538896322250366, -0.05212262272834778, 0.0550907701253891, 0.18440958857536316, 0.07067549228668213, 0.1915251910686493, 0.1411234438419342, -0.08829789608716965, 0.1226254403591156, 0.11486843228340149, -0.01894932985305786, -0.07856240123510361, 0.11538642644882202, -0.03706584870815277, -0.07660485804080963, 0.06048613786697388, 0.16498905420303345, -0.1884976625442505, 0.07677185535430908, -0.1535043716430664, -0.10745300352573395, -0.0775267705321312, -0.1563376486301422, 0.03495119512081146, 0.0897708535194397, 0.19312784075737, 0.11472317576408386, 0.0944024920463562, 0.002554371953010559, -0.14031843841075897, 0.12049603462219238, -0.12734782695770264, 0.029427647590637207, 0.003862038254737854, 0.12807652354240417, -0.06964872032403946, },
{-0.006656396668404341, -0.003202739404514432, 0.12113473564386368, -0.12183358520269394, -0.1632198691368103, 0.06627877056598663, -0.07820174098014832, 0.08801795542240143, -0.14601385593414307, -0.11940877139568329, 0.1184973195195198, -0.04861161857843399, -0.033285368233919144, 0.15350380539894104, -0.17378422617912292, -0.11095442622900009, -0.18882706761360168, 0.12223707884550095, -0.054208651185035706, -0.08279290050268173, 0.17407484352588654, -0.1782299131155014, 0.04793864116072655, -0.14989927411079407, -0.04776819050312042, 0.014115056954324245, -0.08818378299474716, 0.1949014812707901, -0.15565696358680725, -0.05833602324128151, -0.1976209431886673, -0.11916764825582504, -0.19908639788627625, 0.09434781223535538, -0.05521653592586517, -0.16921018064022064, 0.08624781668186188, 0.12814085185527802, -0.20524658262729645, -0.20214110612869263, },
{-0.008573141880333424, -0.12442458420991898, -0.23440611362457275, -0.0446087047457695, -0.08416523784399033, 0.06532532721757889, 0.21287183463573456, -0.21794749796390533, 0.16606029868125916, -0.09419818967580795, -0.1586308777332306, -0.11419156193733215, 0.09822729229927063, 0.050062354654073715, 0.19087298214435577, -0.09093794226646423, -0.12173306941986084, 0.0940600335597992, -0.1683654487133026, -0.1446189433336258, -0.07357878237962723, 0.034768059849739075, -0.07693526893854141, 0.24693068861961365, -0.012239037081599236, 0.14555098116397858, 0.15442495048046112, 0.15191593766212463, 0.06663966923952103, 0.0376109778881073, -0.0026309285312891006, -0.027511829510331154, -0.03143247589468956, 0.11131477355957031, 0.08594927936792374, -0.029520738869905472, 0.006153996102511883, -0.023464027792215347, 0.06024939939379692, 0.11119378358125687, },
{0.08007284253835678, 0.03958853334188461, -0.13180361688137054, -0.05631736293435097, 0.13922341167926788, 0.08317866921424866, -0.024551864713430405, 0.27246230840682983, 0.20926427841186523, -0.20053216814994812, -0.023029543459415436, -0.1148902028799057, -0.1478036791086197, 0.1443178951740265, 0.07681898027658463, 0.026482155546545982, -0.306264728307724, -0.14587493240833282, -0.03954425826668739, -0.46452441811561584, -0.12176088243722916, -0.12886324524879456, 0.25244569778442383, 0.471439003944397, -0.3061692714691162, 0.25058114528656006, -0.17315316200256348, 0.08147335797548294, 0.26159605383872986, -0.18054352700710297, -0.1218699961900711, 0.1964258849620819, -0.09422994405031204, -0.0473686084151268, -0.08195947855710983, -0.022032322362065315, -0.4166449308395386, -0.25373443961143494, 0.2787962853908539, -0.20961041748523712, },
{0.03563438728451729, -0.04589995741844177, 0.1759539544582367, -0.0015012896619737148, 0.10912031680345535, 0.1078939214348793, 0.014316203072667122, 0.18282358348369598, 0.06923083961009979, -0.07825901359319687, 0.1746387630701065, 0.17535731196403503, 0.04751979187130928, 0.01789013296365738, 0.05220364034175873, 0.2202346920967102, -0.06313366442918777, 0.11580127477645874, 0.1606803834438324, -0.21163128316402435, -0.11926855146884918, 0.2033422887325287, -0.012715357355773449, -0.11326288431882858, -0.1948995441198349, 0.2073228806257248, 0.06347616761922836, -0.15721571445465088, 0.15229403972625732, -0.04266592487692833, 0.03979826718568802, -0.1569899469614029, -0.20572185516357422, 0.2100805640220642, -0.19287168979644775, -0.05611955374479294, -0.00914724636822939, 0.023580990731716156, 0.2253471463918686, -0.16571655869483948, },
{-0.13161782920360565, 0.1857711225748062, 0.12262584269046783, 0.06888624280691147, -0.14486850798130035, -0.15273231267929077, 0.1834179162979126, 0.09949952363967896, -0.11053138226270676, -0.14145492017269135, 0.05350736901164055, 0.0864284411072731, 0.07237794995307922, 0.19105377793312073, 0.11422892659902573, -0.050206851214170456, 0.06722531467676163, -0.004275243729352951, 0.11793674528598785, -0.06395036727190018, 0.13190755248069763, -0.11431921273469925, -0.08385173976421356, 0.1617438793182373, 0.1893138587474823, -0.1799440234899521, 0.10950388759374619, -0.15552301704883575, 0.0060695162974298, 0.08809539675712585, -0.11122290045022964, 0.11721634119749069, 0.05856890231370926, 0.0025181041564792395, 0.1576201617717743, 0.089626245200634, 0.14875636994838715, 0.1219293400645256, 0.11627504974603653, 0.005157568491995335, },
{0.0023272312246263027, 0.04414612799882889, -0.0811743214726448, 0.04711313545703888, -0.06347448378801346, 0.033525992184877396, -0.13080911338329315, -0.0580470897257328, 0.1684202253818512, 0.14191795885562897, -0.15065442025661469, -0.032733190804719925, 0.10042338073253632, -0.028638074174523354, 0.1268060803413391, 0.04061107337474823, -0.04552813246846199, 0.202886164188385, 0.2106187641620636, 0.00170572055503726, 0.2098546028137207, -0.13195928931236267, 0.16944818198680878, -0.11563578993082047, 0.10464230924844742, -0.053960103541612625, 0.16553084552288055, -0.15831206738948822, -0.02905423566699028, 0.072622150182724, 0.131843701004982, -0.18091635406017303, -0.028304239735007286, 0.1028481051325798, -0.11451656371355057, -0.053818367421627045, -0.049067359417676926, 0.19649812579154968, -0.10229262709617615, -0.14937900006771088, },
{-0.05226879194378853, -0.12868589162826538, 0.05311776325106621, 0.025213459506630898, 0.18160180747509003, 0.014583127573132515, -0.014380785636603832, -0.027571722865104675, 0.02597813680768013, -0.18794415891170502, -0.04206649959087372, -0.17168238759040833, 0.43157678842544556, 0.0898982584476471, 0.09442736953496933, 0.228109210729599, 0.17930014431476593, -0.06718631088733673, 0.1298542320728302, 0.012551338411867619, 0.17193110287189484, -0.13789746165275574, 0.015601498074829578, 0.09735320508480072, 0.017421528697013855, -0.19514933228492737, -0.1325148046016693, -0.09962853789329529, -0.008503190241754055, 0.06421887129545212, -0.17099206149578094, -0.07135409116744995, 0.09661252051591873, 0.1007729172706604, -0.19348686933517456, -0.01381952129304409, 0.12441202998161316, -0.01205004658550024, -0.14925625920295715, 0.0625820904970169, },
{-0.028852764517068863, -0.015301543287932873, 0.06642033904790878, 0.10875166952610016, 0.12507730722427368, 0.09327614307403564, 0.198866605758667, -0.22550977766513824, 0.15474922955036163, -0.03669270873069763, 0.12732593715190887, 0.09861340373754501, 0.09681302309036255, -0.1298585683107376, 0.20646589994430542, -0.15904439985752106, -0.03009367175400257, -0.08086007088422775, -0.09524866938591003, 0.10143032670021057, 0.06434622406959534, -0.02786545269191265, 0.17168280482292175, 0.19401010870933533, -0.08434783667325974, -0.05449415370821953, 0.1611616164445877, 0.07424740493297577, 0.08663110435009003, -0.09009891003370285, -0.09140604734420776, 0.17498211562633514, -0.009709303267300129, 0.004931412171572447, 0.10974647104740143, 0.1746819168329239, 0.030736342072486877, -0.2079286277294159, 0.17110034823417664, 0.10468359291553497, },
{-0.10809431225061417, 0.09116540849208832, -0.0723184198141098, -0.23744307458400726, 0.016796056181192398, -0.00885394960641861, 0.13075093924999237, 0.015718387439846992, -0.11397042125463486, 0.02433125115931034, 0.032696306705474854, 0.08734655380249023, -0.0324753075838089, -0.01584944687783718, -0.0006539783207699656, 0.12500962615013123, 0.07695050537586212, -0.11164698749780655, 0.05154149979352951, -0.050792284309864044, 0.20972907543182373, 0.1214197427034378, -0.1784999966621399, -0.3308497667312622, -0.14749141037464142, 0.046967264264822006, -0.14706236124038696, 0.005428835283964872, 0.2775056064128876, -0.03272074833512306, 0.008750087581574917, -0.002616957062855363, -0.18375737965106964, -0.09536661952733994, -0.1511053740978241, 0.03829549625515938, 0.2396942675113678, 0.23499636352062225, 0.03696584329009056, -0.0585409477353096, },
{-0.07530200481414795, -0.1780315786600113, -0.15770773589611053, -0.04185951128602028, 0.18954940140247345, -0.09698528051376343, -0.2297011762857437, 0.16758126020431519, -0.023015525192022324, -0.14085200428962708, 0.19000187516212463, -0.18434272706508636, -0.16567477583885193, 0.027075698599219322, 0.17129731178283691, -0.12003137171268463, 0.09296867996454239, 0.0875658392906189, -0.19940480589866638, -0.14424890279769897, -0.14643113315105438, 0.005755804944783449, 0.11335952579975128, 0.2616542875766754, -0.15882769227027893, 0.2236517071723938, 0.027640096843242645, -0.12972916662693024, -0.16466300189495087, -0.0046108500100672245, -0.03098340891301632, -0.012437769211828709, 0.12015097588300705, -0.04687640070915222, 0.15032772719860077, -0.16780683398246765, 0.040124353021383286, -0.17220519483089447, 0.18221838772296906, -0.11476506292819977, },
{0.016052603721618652, -0.1387140452861786, -0.011121734976768494, -0.05923619866371155, 0.18689700961112976, 0.07566449046134949, -0.16759656369686127, 0.06107223033905029, -0.025295332074165344, -0.012352243065834045, 0.02968984842300415, -0.015124455094337463, -0.11114227771759033, 0.12494498491287231, -0.022408023476600647, -0.020752981305122375, 0.01191575825214386, -0.10360130667686462, 0.18221914768218994, 0.1039796769618988, -0.029877573251724243, 0.05249921977519989, -0.1751394271850586, 0.14360183477401733, -0.1532544046640396, -0.03578685224056244, -0.13484472036361694, -0.05789603292942047, -0.18813616037368774, -0.012445509433746338, 0.08715644478797913, 0.10370302200317383, -0.077455535531044, -0.03150606155395508, 0.06551676988601685, 0.07862070202827454, 0.08938169479370117, -0.05109977722167969, -0.14124828577041626, -0.11495135724544525, },
{-0.09141937643289566, 0.08580446243286133, -0.0032362043857574463, -0.05299840867519379, 0.08973371982574463, -0.015990912914276123, -0.14812302589416504, -0.03973883390426636, -0.020384415984153748, -0.08777835220098495, 0.11701250076293945, -0.11424514651298523, 0.17919039726257324, -0.08647987991571426, -0.020116537809371948, 0.1323685348033905, -0.1704862266778946, -0.1620389074087143, -0.011952653527259827, -0.11986393481492996, -0.17534616589546204, -0.09329178184270859, -0.03207772970199585, 0.06237637996673584, 0.04450477659702301, -0.0005430877208709717, 0.15860897302627563, 0.19340896606445312, 0.1097293496131897, 0.01726911962032318, -0.178308367729187, 0.13659274578094482, -0.005470171570777893, -0.10591486841440201, -0.048906952142715454, -0.00415194034576416, 0.17811086773872375, -0.07762067764997482, -0.07793020457029343, 0.041516780853271484, },
{0.10883781313896179, -0.035860076546669006, -0.07582292705774307, -0.12211807072162628, 0.09362250566482544, -0.10039764642715454, 0.0171402245759964, 0.06998658180236816, -0.044931381940841675, -0.05260540544986725, 0.1829971969127655, -0.006792515516281128, -0.08877492696046829, -0.04952295124530792, 0.043800368905067444, 0.14089444279670715, -0.08279938250780106, -0.1172446459531784, 0.0445583313703537, -0.12507092952728271, -0.15633997321128845, 0.06582832336425781, 0.11783427000045776, 0.16663813591003418, 0.06270325183868408, 0.03517076373100281, 0.10677847266197205, 0.06376269459724426, 0.13664200901985168, 0.06929361820220947, -0.027389392256736755, 0.045916736125946045, -0.01141326129436493, -0.1185440868139267, 0.06995099782943726, -0.19187146425247192, 0.17954570055007935, -0.1575244516134262, -0.06852643191814423, 0.1827886700630188, },
{-0.09444864094257355, 0.028513573110103607, 0.012049464508891106, 0.09441347420215607, -0.14193330705165863, -0.1690286248922348, -0.03192833438515663, -0.006842624396085739, -0.1149919405579567, 0.029670942574739456, -0.1430719792842865, -0.08466310799121857, 0.1458243429660797, 0.11699304729700089, 0.1248638778924942, -0.09906632453203201, -0.007287554442882538, 0.18003906309604645, -0.12298937141895294, 0.001370726735331118, 0.0649617463350296, 0.022472059354186058, 0.03497502580285072, 0.10225134342908859, 0.004329908173531294, -0.0017641977174207568, -0.16390475630760193, 0.18334418535232544, 0.020251622423529625, 0.01493431068956852, -0.03354983776807785, -0.10508618503808975, -0.016261667013168335, 0.169682115316391, -0.019520437344908714, -0.18015171587467194, -0.012633000500500202, 0.013675233349204063, 0.06119416281580925, -0.13035793602466583, },
{0.0257033109664917, -0.4052771031856537, -0.3392913341522217, -0.0262827817350626, 0.09167478233575821, 0.08375407010316849, -1.0000410079956055, -0.5929180383682251, 0.8561519980430603, -0.6338204145431519, 1.018646001815796, -0.42091670632362366, -0.04726914316415787, 1.091234803199768, 0.5915355682373047, 1.0535982847213745, 0.12147898972034454, 0.28612568974494934, -0.5557981729507446, -0.17911939322948456, -1.0289959907531738, -0.0927237793803215, 0.7739282250404358, 0.47054895758628845, 0.393595814704895, -0.34706252813339233, 0.10395753383636475, -0.6944862604141235, -0.8600670695304871, 0.5370417237281799, 0.006801055744290352, 0.11179615557193756, -0.1389768421649933, -0.13572363555431366, -0.09414491802453995, -0.01189270056784153, -0.05680842325091362, -0.8461910486221313, -0.423836886882782, 0.11159661412239075, },
{0.05661725997924805, -0.09701766818761826, 0.11440771818161011, -0.15298394858837128, -0.01212814450263977, 0.1236620843410492, 0.09774816036224365, 0.05707836151123047, 0.01240617036819458, -0.020348399877548218, 0.049366578459739685, -0.16733437776565552, -0.0768149271607399, -0.08356459438800812, -0.10286799818277359, 0.10736167430877686, 0.13027673959732056, 0.13050180673599243, -0.1113436222076416, 0.07163363695144653, -0.12830571830272675, 0.07801061868667603, 0.14553314447402954, -0.03580416738986969, -0.16597546637058258, -0.004651576280593872, -0.052877068519592285, 0.03579835593700409, -0.056644365191459656, -0.007751405239105225, -0.11203408986330032, 0.11429625749588013, 0.18543732166290283, -0.023244664072990417, -0.019742056727409363, 0.06121248006820679, 0.07991650700569153, 0.15816307067871094, -0.1375763714313507, 0.1852988600730896, },
{-0.11797123402357101, -0.11308786273002625, -0.20327410101890564, -0.02382134273648262, 0.21471263468265533, 0.10344315320253372, -0.08671387284994125, -0.0017727166414260864, -0.045450400561094284, 0.04812965914607048, -0.04412170872092247, -0.12462892383337021, -0.029132528230547905, 0.19386136531829834, 0.02511952817440033, 0.11198215186595917, 0.04262606054544449, 0.07255543768405914, 0.20160862803459167, -0.21596668660640717, -0.09432512521743774, 0.10569340735673904, 0.09759154170751572, -0.17342005670070648, 0.01545572280883789, 0.11600278317928314, -0.0391642302274704, -0.1603606939315796, 0.06374473869800568, 0.010357566177845001, 0.06303180754184723, -0.16704419255256653, -0.0012993220007047057, -0.054687079042196274, -0.062295008450746536, -0.027491740882396698, -0.18718919157981873, -0.13006223738193512, 0.18978196382522583, -0.12395758926868439, },
{-0.13005010783672333, 0.08697163313627243, -0.09446130692958832, -0.10783738642930984, -0.12709589302539825, -0.12532441318035126, 0.025632072240114212, -0.03293697535991669, -0.10865181684494019, 0.15628479421138763, -0.2306518852710724, -0.19916827976703644, -0.02467271499335766, -0.07930386066436768, 0.037682484835386276, 0.011101930402219296, 0.10182751715183258, 0.013191858306527138, -0.10241710394620895, 0.1471254527568817, -0.002523146802559495, -0.1087586060166359, -0.10593067854642868, 0.10716471821069717, -0.0708920955657959, 0.09951622784137726, -0.07999671995639801, 0.05891057476401329, 0.08775141090154648, 0.03781060501933098, -0.08396527171134949, -0.08282295614480972, 0.13857153058052063, 0.10540381073951721, 0.003894780296832323, -0.13504162430763245, -0.04981832951307297, -0.04862978681921959, -0.05097782984375954, 0.05881684646010399, },
{-0.02399994432926178, 0.06984958052635193, -0.10451609641313553, -0.0016023009084165096, -0.11596594750881195, -0.16936151683330536, 0.034227773547172546, -0.38680121302604675, -0.22265522181987762, -0.16338150203227997, -0.29633986949920654, -0.06180022284388542, 0.5814642310142517, -0.06297162175178528, 0.16231320798397064, -0.02056856080889702, 0.05974561348557472, 0.07211022824048996, -0.1537899523973465, 0.12696325778961182, 0.10331425070762634, -0.118057981133461, -0.17797616124153137, -0.08682037144899368, 0.025119006633758545, -0.24921028316020966, 0.2518653869628906, 0.23618224263191223, 0.05132853984832764, 0.12832744419574738, -0.1476624757051468, 0.07706791162490845, 0.13510870933532715, 0.16602879762649536, -0.041886668652296066, 0.14261096715927124, 0.3601917326450348, -0.34301429986953735, -0.3543094992637634, -0.009933906607329845, },
{0.10955177992582321, -0.08488127589225769, -0.09206153452396393, -0.09290903806686401, -0.12242650985717773, 0.20982779562473297, 0.18910008668899536, 0.1474558413028717, 0.15162986516952515, -0.14950191974639893, 0.15720249712467194, 0.025208165869116783, -0.0543680302798748, -0.07066937536001205, -0.045645080506801605, 0.10105067491531372, 0.005768265575170517, -0.10735654085874557, 0.04338642954826355, 0.13271372020244598, 0.07936406135559082, 0.11195208877325058, -0.1902260184288025, 0.06483415514230728, 0.004211790394037962, -0.024298787117004395, -0.10666606575250626, -0.08687150478363037, 0.08871901035308838, -0.02463405393064022, -0.1575700342655182, 0.00962810218334198, -0.16940243542194366, 0.19069676101207733, -0.1920609325170517, 0.08242235332727432, 0.07710497081279755, 0.044375792145729065, -0.12448979169130325, -0.01903451420366764, },
{0.20793895423412323, 0.1038454920053482, 0.023565012961626053, -0.02538359723985195, -0.058684054762125015, 0.020284101366996765, -0.1296500563621521, 0.010523741133511066, -0.17011632025241852, 0.14118273556232452, -0.09833162277936935, -0.06304249167442322, -0.012003593146800995, -0.00021394911163952202, 0.07854068279266357, -0.06335081160068512, -0.03532123193144798, -0.06314884126186371, -0.08763081580400467, 0.10966695845127106, 0.12295859307050705, -0.11108898371458054, -0.12130234390497208, 0.08170127123594284, -0.013988419435918331, 0.039769258350133896, 0.04466972500085831, -0.14721378684043884, -0.03493451327085495, -0.15419909358024597, -0.060204844921827316, 0.08455542474985123, 0.11287198215723038, 0.17231610417366028, 0.11425312608480453, 0.0377172976732254, -0.11484069377183914, -0.1766064465045929, -0.16528506577014923, -0.026383034884929657, },
{0.03767258673906326, -0.26191484928131104, -0.40595000982284546, 0.1814892739057541, 0.3077848255634308, 0.07784753292798996, -0.2671873867511749, 0.0060282135382294655, 0.21926209330558777, -0.34108978509902954, 0.2532902657985687, -0.08325336873531342, 0.1197160854935646, 0.14331939816474915, 0.6306073665618896, 0.08706752210855484, -0.20771637558937073, -0.0018697059713304043, 0.10664253681898117, -0.3536897301673889, -0.29837867617607117, -0.03227323666214943, 0.2777044475078583, 0.08765385299921036, -0.05352528393268585, 0.3258962333202362, 0.041347768157720566, -0.30939704179763794, 0.08805059641599655, -0.0770266056060791, 0.02309473231434822, 0.027144577354192734, -0.10181877017021179, 0.05192917212843895, -0.18383151292800903, 0.08319808542728424, -0.19206726551055908, -0.429136723279953, 0.29607412219047546, -0.03192317485809326, },
{-0.014128163456916809, 0.19134250283241272, 0.14403724670410156, -0.024621769785881042, 0.18369796872138977, 0.12267604470252991, -0.14797349274158478, -0.13805058598518372, 0.10989797115325928, -0.12022281438112259, -0.14621345698833466, -0.1269029974937439, 0.009911447763442993, -0.18624094128608704, 0.07117646932601929, 0.10991773009300232, -0.09411392360925674, -0.03847222030162811, -0.02681274712085724, 0.15739548206329346, 0.046010926365852356, 0.16676956415176392, 0.13506901264190674, 0.15784186124801636, -0.12425045669078827, 0.16926920413970947, 0.17079082131385803, -0.1421896517276764, 0.15589234232902527, -0.06680874526500702, 0.1434462070465088, 0.15360885858535767, -0.030113771557807922, 0.044574588537216187, 0.1070382297039032, 0.09699732065200806, 0.16698062419891357, -0.034506991505622864, -0.06402416527271271, -0.1586422622203827, },
{-0.16263307631015778, 0.09730284661054611, 0.1691564917564392, 0.05968105047941208, 0.018267672508955002, -0.1487349271774292, 0.09514349699020386, 0.11408080160617828, -0.08754004538059235, 0.10354501008987427, 0.16365893185138702, -0.07547210156917572, 0.14464476704597473, -0.12040097266435623, 0.12207858264446259, 0.19198641180992126, 0.1442219763994217, 0.18952280282974243, -0.010827062651515007, -0.1827879399061203, -0.1126139760017395, 0.12855929136276245, 0.09550782293081284, 0.12607429921627045, 0.10619562864303589, 0.1569010615348816, 0.11638493835926056, -0.11583619564771652, -0.1716185212135315, 0.06957435607910156, 0.18965259194374084, -0.13503418862819672, -0.0425146259367466, 0.127749502658844, 0.17372164130210876, -0.0017205242766067386, 0.0032050330191850662, -0.017596589401364326, -0.09512501209974289, 0.13090358674526215, },
{0.019225716590881348, 0.10322218388319016, 0.07277197390794754, -0.17124266922473907, 0.049277156591415405, -0.13474036753177643, -0.16187149286270142, -0.011423230171203613, -0.010009338147938251, -0.160572350025177, 0.13478143513202667, -0.11827777326107025, 0.0633508712053299, -0.12891805171966553, -0.001391239115037024, 0.1489926427602768, -0.1253959983587265, -0.07864605635404587, 0.10447940975427628, -0.10840930044651031, 0.1725761592388153, 0.05801093950867653, -0.16641981899738312, -0.16575805842876434, 0.10125937312841415, -0.12423619627952576, 0.19100363552570343, 0.016173718497157097, -0.08961544930934906, -0.01381360087543726, 0.06727415323257446, -0.137697234749794, 0.12424644082784653, 0.14083096385002136, 0.09139379113912582, -0.13734644651412964, -0.05389780178666115, -0.04471990093588829, -0.1169549748301506, 0.16439580917358398, },
{0.14323168992996216, -0.04829530417919159, 0.07110056281089783, -0.16759255528450012, -0.1361432820558548, -0.05869600176811218, -0.04065340757369995, -0.0007092058658599854, 0.16755786538124084, -0.1311343014240265, 0.07455271482467651, 0.11697256565093994, 0.1253233551979065, -0.010743200778961182, -0.1426737755537033, -0.15063266456127167, -0.12399856001138687, -0.07183217257261276, 0.001991748809814453, 0.07728192210197449, 0.08591753244400024, 0.08925151824951172, -0.1510319858789444, 0.013902723789215088, -0.1179368644952774, -0.1270800083875656, -0.02195782959461212, -0.04870454967021942, 0.06651666760444641, 0.13271546363830566, -0.18560948967933655, 0.11187365651130676, 0.19114932417869568, -0.15783756971359253, -0.05067829787731171, -0.04468151926994324, -0.1834365576505661, 0.05963832139968872, 0.18302518129348755, -0.1217956691980362, },
{0.05307970941066742, -0.05374690890312195, 0.10426503419876099, -0.12316145747900009, -0.1366666555404663, 0.0971364974975586, 0.055196866393089294, 0.1004858911037445, 0.015464767813682556, 0.07268902659416199, 0.0646977424621582, 0.07852721214294434, -0.07542333006858826, -0.14308445155620575, -0.028776049613952637, 0.16663408279418945, 0.15300384163856506, -0.10974975675344467, -0.13374222815036774, 0.16121205687522888, 0.16265124082565308, -0.11979717761278152, 0.07438921928405762, -0.0643937885761261, 0.003773525357246399, 0.01505996286869049, -0.11649425327777863, 0.06248760223388672, 0.06938108801841736, 0.18705806136131287, 0.16870218515396118, 0.1321646273136139, 0.1281229853630066, -0.15075334906578064, -0.09476320445537567, -0.18888872861862183, 0.01783585548400879, -0.1082138791680336, -0.17662304639816284, -0.047420158982276917, },
{0.005888942629098892, 0.32607096433639526, 0.13363558053970337, -0.07440196722745895, -0.06152414157986641, 0.07141055911779404, 0.10346755385398865, -0.21561329066753387, 0.05239579454064369, -0.0069939857348799706, -0.1819600760936737, 0.1426977515220642, -0.10212532430887222, -0.10270196199417114, -0.11612437665462494, 0.11706621199846268, -0.11623067408800125, 0.18562622368335724, -0.05395708233118057, -0.05851291865110397, 0.23697543144226074, 0.01905696652829647, -0.18853551149368286, -0.13838008046150208, -0.1457582712173462, -0.07097865641117096, -0.08900663256645203, 0.0606403574347496, -0.016673482954502106, -0.028427135199308395, 0.10176977515220642, -0.14042536914348602, -0.07202131301164627, 0.10407479107379913, -0.15535080432891846, 0.3219260275363922, 0.3096752464771271, 0.010408015921711922, 0.013456033542752266, -0.08427780121564865, },
{0.1441657841205597, 0.30142223834991455, 0.2234339565038681, 0.1067841500043869, -0.2146155685186386, -0.05186910927295685, 0.06480447947978973, 0.05602438002824783, -0.02237263135612011, 0.15775643289089203, -0.05947068706154823, 0.14246056973934174, -0.11552100628614426, -0.14842137694358826, -0.21261414885520935, -0.2970058023929596, -0.000527735857758671, 0.13067616522312164, -0.009295080788433552, 0.029003167524933815, -0.09730202704668045, -0.1875096559524536, 0.19101059436798096, 0.15348359942436218, 0.3363803029060364, 0.05168701708316803, -0.09797299653291702, -0.07162205874919891, 0.01684964820742607, 0.050892602652311325, -0.05966121703386307, -0.06747118383646011, -0.14159658551216125, -0.050318021327257156, -0.031209608539938927, -0.2919946312904358, -0.011401869356632233, 0.2657531499862671, 0.10005214065313339, 0.0646650642156601, },
{0.057389743626117706, 0.14230960607528687, 0.04080500453710556, -0.11787572503089905, -0.20829252898693085, -0.09530261904001236, -0.0726253092288971, -0.04589879885315895, -0.028322065249085426, 0.18052123486995697, -0.02540714107453823, 0.2713925838470459, -0.35022619366645813, 0.020235657691955566, -0.26432210206985474, 0.118258997797966, -0.08841904252767563, 0.3798295259475708, -0.009926832281053066, -0.0035038371570408344, -0.05317157879471779, -0.03130502998828888, 0.14417995512485504, -0.20787884294986725, 0.18887841701507568, 0.09184591472148895, 0.08142220973968506, -0.13067249953746796, 0.10177840292453766, 0.0210622176527977, 0.06888721138238907, 0.17014938592910767, -0.019384508952498436, 0.14199793338775635, 0.17039889097213745, -0.15624044835567474, -0.09702187031507492, 0.27210041880607605, 0.07019481062889099, -0.09864682704210281, },
{-0.07318674027919769, -0.15988390147686005, 0.14797735214233398, -0.13882097601890564, 0.06615340709686279, 0.04866858199238777, 0.11495597660541534, 0.11463858932256699, -0.24713502824306488, 0.13017985224723816, -0.02017933875322342, 0.029559001326560974, 0.05179067701101303, 0.07215877622365952, 0.1432374268770218, -0.2477988749742508, -0.1357584297657013, 0.19048723578453064, 0.02122991718351841, 0.039838578552007675, 0.11399399489164352, -0.03286546468734741, -0.10664268583059311, 0.14840839803218842, -0.0861763283610344, 0.1002202108502388, 0.06348469108343124, -0.0978667214512825, 0.15388934314250946, 0.06925464421510696, -0.14646650850772858, -0.05644729360938072, -0.10046505182981491, -0.030055353417992592, -0.0401485338807106, -0.13601849973201752, 0.01616264134645462, 0.11283254623413086, -0.17833936214447021, -0.0959014743566513, },
{0.06116005778312683, -0.03264276683330536, -0.16912959516048431, -0.0058063119649887085, 0.2755136489868164, 0.07348377257585526, -0.10130898654460907, 0.14755208790302277, 0.13870979845523834, -0.13598774373531342, 0.22468052804470062, 0.07017453014850616, 0.24334919452667236, 0.09645295143127441, -0.20316508412361145, 0.24203601479530334, 0.11003999412059784, 0.2183886170387268, 0.2919287383556366, -0.18498234450817108, -0.09072904288768768, 0.08981393277645111, 0.17463867366313934, -0.32555362582206726, -0.02123456448316574, -0.15411709249019623, 0.1721126139163971, 0.01948411762714386, -0.21288681030273438, 0.09285471588373184, -0.13186143338680267, -0.0860404521226883, -0.13160637021064758, 0.020358256995677948, -0.03216142579913139, -0.3362467288970947, -0.08597657084465027, 0.2880384624004364, 0.028416801244020462, 0.09196031838655472, },
{-0.03464019298553467, 0.1905457079410553, -0.09799724817276001, 0.0869249701499939, 0.004097357392311096, -0.10752013325691223, -0.11080888658761978, -0.1500416100025177, 0.0945935845375061, 0.10768204927444458, 0.06475543975830078, -0.00372450053691864, -0.12782934308052063, -0.1322675347328186, -0.004621580243110657, -0.12447115033864975, -0.026766806840896606, 0.0777030885219574, 0.053429171442985535, -0.07408067584037781, 0.13643115758895874, -0.03894259035587311, -0.0867091566324234, 0.14340007305145264, 0.010739266872406006, -0.047689467668533325, -0.11176127195358276, -0.158267542719841, -0.12108369171619415, -0.016064971685409546, 0.04273509979248047, -0.08913596719503403, -0.1255631148815155, -0.13144159317016602, -0.018584638833999634, -0.05214764177799225, 0.07260841131210327, -0.056505173444747925, -0.11498206108808517, -0.0549854040145874, },
{-0.08052962273359299, 0.07482144236564636, -0.13214153051376343, -0.21199750900268555, -0.12003325670957565, -0.07866915315389633, -0.0967479795217514, -0.1746218502521515, 0.14803895354270935, 0.046988796442747116, 0.11590620875358582, 0.05238404870033264, 0.09103735536336899, -0.20102739334106445, 0.24232065677642822, -0.20397567749023438, 0.10631202906370163, -0.17596490681171417, -0.10210419446229935, -0.16798381507396698, -0.0736607015132904, -0.09648655354976654, -0.17805302143096924, -0.1231650710105896, -0.2833397090435028, -0.06671043485403061, 0.05904726684093475, 0.14564000070095062, -0.008650969713926315, 0.028326591476798058, -0.1339486688375473, -0.08348137140274048, 0.01465586293488741, -0.047917332500219345, 0.08627991378307343, 0.13984687626361847, -0.03851576894521713, -0.11018490046262741, -0.181453675031662, 0.05218319222331047, },
{-0.026447638869285583, -0.098580002784729, -0.04023437201976776, 0.08966025710105896, 0.04929085075855255, 0.015202715992927551, -0.023756831884384155, 0.11020997166633606, -0.1837814450263977, 0.17394429445266724, -0.0030990391969680786, 0.05064399540424347, 0.059858232736587524, -0.10156869143247604, 0.07073426246643066, 0.0021855682134628296, -0.06080961227416992, 0.1907384693622589, 0.06268271803855896, 0.09080472588539124, 0.1538894772529602, -0.12460504472255707, 0.18094488978385925, 0.021631091833114624, -0.012362271547317505, -0.17554733157157898, 0.13440537452697754, -0.07310382276773453, -0.10460808128118515, -0.1934581696987152, -0.021979525685310364, 0.0011656880378723145, 0.09423527121543884, -0.09695436805486679, -0.028449594974517822, -0.05789814889431, -0.1809827834367752, 0.09195065498352051, 0.17555150389671326, 0.07579901814460754, },
{0.1589343249797821, -0.1067192405462265, -0.12080466747283936, 0.09334080666303635, 0.1892382800579071, 0.1544414758682251, -0.002403875347226858, 0.0035335293505340815, -0.029439717531204224, -0.28892824053764343, 0.11925692856311798, -0.0360092930495739, -0.11403319239616394, 0.184987872838974, 0.38579344749450684, -0.1324721723794937, 0.023218419402837753, -0.3795555830001831, -0.10315636545419693, -0.31494277715682983, -0.2448180615901947, -0.12426840513944626, 0.03153324872255325, 0.379079669713974, 0.015368688851594925, 0.19236800074577332, -0.2029646784067154, -0.21429269015789032, -0.07220552861690521, -0.20254556834697723, 0.050135623663663864, 0.19539110362529755, 0.1268160045146942, -0.11813896149396896, -0.09895318001508713, 0.1723056137561798, -0.0928112119436264, -0.2544211745262146, 0.09132243692874908, -0.20402885973453522, },
{0.1394854038953781, -0.04707953333854675, 0.07659776508808136, -0.11002396792173386, -0.007124819792807102, 0.15692764520645142, 0.13265910744667053, 0.11765822023153305, 0.05241047963500023, 0.14307208359241486, 0.17393966019153595, 0.0037128145340830088, 0.041480652987957, 0.1225006952881813, -0.23227711021900177, 0.03777533024549484, -0.044170502573251724, -0.1937442123889923, 0.21960929036140442, 0.1484512984752655, 0.11470445990562439, -0.031898368149995804, -0.13772204518318176, -0.18019847571849823, 0.1753258854150772, -0.19756729900836945, -0.0508989542722702, 0.03150860220193863, 0.1961507499217987, -0.20755362510681152, -0.11818920820951462, 0.10619328171014786, -0.03544072434306145, -0.06827627867460251, 0.10992396622896194, 0.0699068084359169, -0.17771854996681213, 0.022690175101161003, 0.09877552092075348, -0.17405720055103302, },
{0.026837676763534546, 0.041820988059043884, -0.004625678062438965, -0.141447976231575, -0.18405726552009583, -0.15268582105636597, -0.14541131258010864, -0.025110095739364624, -0.04326830804347992, -0.006700396537780762, -0.17292079329490662, 0.12219059467315674, -0.05001369118690491, -0.12805306911468506, -0.12979426980018616, 0.18075397610664368, 0.06123620271682739, -0.03985901176929474, 0.07683610916137695, -0.1432541310787201, 0.09873688220977783, 0.09172886610031128, -0.02365945279598236, -0.028324201703071594, 0.17404183745384216, -0.14861330389976501, -0.1064007505774498, -0.019872158765792847, 0.13950622081756592, -0.055305033922195435, -0.08248358219861984, 0.15994563698768616, 0.1516188085079193, -0.026754334568977356, -0.14102931320667267, -0.1699100285768509, -0.031081855297088623, -0.0254230797290802, 0.09084692597389221, -0.1003953367471695, },
{-0.17729392647743225, -0.07162879407405853, -0.08763536810874939, 0.08478325605392456, -0.13655787706375122, 0.1331687569618225, -0.15729156136512756, -0.18147066235542297, 0.12096342444419861, -0.10485324263572693, -0.07144753634929657, 0.07793989777565002, 0.04907768964767456, 0.028139889240264893, 0.013543754816055298, 0.022600919008255005, 0.18125444650650024, 0.1291409134864807, -0.038975462317466736, -0.031961798667907715, -0.07879486680030823, 0.03213497996330261, -0.18126973509788513, -0.14123329520225525, -0.1392900049686432, 0.18127116560935974, 0.13778871297836304, 0.024182140827178955, -0.12175323814153671, 0.034939736127853394, 0.07881689071655273, 0.11811470985412598, -0.0813831314444542, 0.023858219385147095, 0.0605320930480957, -0.03219352662563324, 0.012728109955787659, 0.014527618885040283, -0.07090194523334503, -0.11377495527267456, },
{-0.08718789368867874, 0.09028702974319458, 0.04504773020744324, 0.15051624178886414, -0.07721120119094849, 0.0063238441944122314, -0.13158199191093445, 0.11362028121948242, -0.07452856749296188, 0.004844948649406433, -0.05072967708110809, 0.016600310802459717, -0.04171350598335266, -0.06195215880870819, 0.11252245306968689, -0.18395055830478668, 0.13703781366348267, 0.15202215313911438, 0.1934146285057068, 0.08573877811431885, 0.01101735234260559, -0.07580026239156723, 0.14179766178131104, 0.05336490273475647, 0.005993172526359558, 0.1346292793750763, -0.14536476135253906, 0.11165988445281982, -0.17713764309883118, -0.06666839122772217, 0.17414918541908264, -0.0710025504231453, -0.10921132564544678, 0.031702473759651184, 0.03223097324371338, -0.17692336440086365, 0.11541494727134705, 0.11274495720863342, -0.08883374184370041, -0.17906001210212708, },
{-0.09136509895324707, -0.06882912665605545, -0.17926600575447083, 0.006925737019628286, 0.08994177728891373, 0.11533240228891373, -0.1420440375804901, 0.2637804448604584, 0.09686055779457092, -0.20026090741157532, 0.08018450438976288, -0.14097601175308228, -0.16198332607746124, 0.2196396440267563, 0.013703941367566586, 0.12528684735298157, 0.048474300652742386, -0.05598686635494232, 0.23311097919940948, 0.1146555170416832, 0.10378383100032806, 0.23030701279640198, 0.10049724578857422, -0.10675692558288574, -0.0329812653362751, 0.07506296038627625, 0.1331074833869934, 0.009481574408710003, 0.05431918427348137, -0.15103574097156525, 0.13021667301654816, 0.07584142684936523, -0.14361228048801422, 0.16303518414497375, -0.035756561905145645, -0.10073450952768326, -0.2909373641014099, -0.11191914230585098, 0.20800738036632538, -0.03347564861178398, },
{0.17660589516162872, 0.19175639748573303, -0.05843529850244522, -0.11675552278757095, -0.29319512844085693, -0.04036644473671913, -0.6184830665588379, -0.4235469400882721, 0.856636106967926, 0.2770513892173767, 0.5655385255813599, -0.1883849948644638, -0.017335185781121254, 0.6144367456436157, -0.44989660382270813, 0.20340880751609802, 0.044677622616291046, 0.562732994556427, -0.23163098096847534, -0.02768777869641781, -0.6649158000946045, -0.11852706223726273, 0.39225777983665466, -1.0920552015304565, 0.7152972221374512, -0.6297000646591187, 0.16678431630134583, -0.33035632967948914, -0.576765239238739, 0.10324736684560776, -0.13049249351024628, -0.05206841230392456, -0.14439697563648224, 0.04082975164055824, -0.04359033331274986, -0.602473258972168, 0.04632234200835228, 0.6294894218444824, -0.3164450228214264, 0.09152184426784515, },
{-0.1635473668575287, -0.19868552684783936, 0.11173440515995026, 0.13519543409347534, 0.1717837154865265, -0.021311907097697258, 0.19356593489646912, 0.09132787585258484, -0.004192311316728592, -0.028661975637078285, 0.17073467373847961, -0.002659918973222375, -0.016472646966576576, -0.041897110641002655, 0.00603170832619071, 0.08826415240764618, -0.0808844342827797, -0.13535672426223755, 0.12784375250339508, -0.002074434421956539, -0.1325526237487793, -0.15087799727916718, 0.1763540804386139, -0.10916707664728165, 0.20115314424037933, -0.14380143582820892, 0.08772977441549301, -0.09082203358411789, -0.14393186569213867, -0.0759204626083374, -0.1564732789993286, -0.1406906545162201, -0.09431253373622894, -0.14816278219223022, 0.16356976330280304, 0.01774541661143303, -0.010049411095678806, -0.0831715315580368, -0.17987142503261566, -0.0947144478559494, },
{-0.07474247366189957, 0.012318558059632778, -0.15257708728313446, 0.009699692949652672, 0.07987534999847412, -0.12389011681079865, 0.0014028410660102963, -0.12923243641853333, -0.17083343863487244, 0.03413083404302597, -0.07624303549528122, -0.07035636901855469, -0.00814953725785017, -0.027509206905961037, 0.20693136751651764, -0.02265039086341858, -0.06730913370847702, -0.054578959941864014, -0.143180251121521, -0.01266542263329029, 0.004800613038241863, 0.1631825566291809, 0.0025508678518235683, -0.007211421150714159, 0.21280308067798615, -0.25482290983200073, -0.08020052313804626, 0.1134498193860054, -0.18252451717853546, 0.2574875056743622, 0.07842191308736801, 0.04721115529537201, -0.06383391469717026, 0.1410091668367386, 0.096700519323349, 0.15712393820285797, 0.16323308646678925, 0.12942461669445038, -0.15421919524669647, 0.14637523889541626, },
{0.028162622824311256, 0.12703490257263184, 0.061519309878349304, -0.23375560343265533, -0.18814712762832642, 0.041646864265203476, -0.8644412755966187, -0.4253033995628357, 1.0469526052474976, 0.11382849514484406, 0.8759608864784241, -0.008114678785204887, -0.03417009487748146, 1.0350852012634277, -0.009053912945091724, 0.43108662962913513, 0.07150531560182571, 0.4541224539279938, -0.14073684811592102, -0.12089957296848297, -0.9238898158073425, -0.11408504098653793, 0.6398414373397827, -7.550449663540348e-05, 1.3992199897766113, -0.5787660479545593, -0.028246695175766945, -0.7540802955627441, -1.3262072801589966, 0.1642325222492218, 0.06729602813720703, -0.09930180013179779, 0.09787517786026001, -0.0887540876865387, 0.0421125590801239, -0.7339318990707397, -0.32475194334983826, 0.6297394037246704, -0.05672397464513779, -0.0744478702545166, },
{0.003179904306307435, -0.20032905042171478, 0.03173123300075531, -0.1358313411474228, -0.03628344461321831, -0.13359831273555756, -0.11686202883720398, -0.04109829664230347, 0.08027376234531403, -0.07130613923072815, -0.08568838238716125, 0.10455405712127686, 0.09751234948635101, 0.1315925121307373, -0.030109092593193054, -0.13205355405807495, -0.08331546932458878, 0.12476497888565063, -0.14026018977165222, 0.13098950684070587, 0.14003227651119232, 0.15129297971725464, -0.19303198158740997, -0.12083122879266739, -0.1545533388853073, -0.20127059519290924, 0.18159547448158264, 0.12040045112371445, 0.1675785332918167, -0.0830724909901619, -0.062080152332782745, 0.17367517948150635, 0.016499221324920654, 0.04720576852560043, -0.15362900495529175, 0.17033448815345764, 0.09701541066169739, 0.10187716782093048, 0.0793682262301445, 0.0879359245300293, },
{-0.01464021299034357, 0.19142505526542664, -0.0134401461109519, -0.2107667624950409, -0.11154549568891525, 0.20535877346992493, -0.08325496315956116, -0.040860336273908615, -0.03565909340977669, 0.06367268413305283, 0.003758278675377369, -0.12706629931926727, 0.020088104531168938, -0.0935259610414505, -0.17506910860538483, -0.009138551540672779, 0.07811173796653748, -0.07746102660894394, -0.03593220189213753, 0.0786743015050888, 0.054251834750175476, -0.03393827751278877, 0.0696074590086937, -0.10950638353824615, 0.014646866358816624, -0.1420133262872696, 0.1420252025127411, 0.056454095989465714, 0.041372235864400864, 0.16791114211082458, 0.12488309293985367, 0.17602865397930145, -0.14035432040691376, -0.09592556208372116, -0.19735801219940186, 0.11483778059482574, 0.10013046115636826, 0.018082326278090477, 0.13447295129299164, -0.14824016392230988, },
{-0.06996876746416092, 0.16452044248580933, -0.10498122125864029, -0.01669168472290039, 0.11792969703674316, 0.06747764348983765, -0.04820318520069122, 0.133173406124115, -0.07365896552801132, 0.128645122051239, 0.00500132143497467, -0.06080397963523865, -0.018276453018188477, 0.1655927300453186, 0.16630062460899353, -0.18777723610401154, -0.04032154381275177, -0.09257638454437256, -0.06330308318138123, 0.027148112654685974, 0.08897298574447632, 0.014715433120727539, 0.1790446937084198, -0.02820955216884613, -0.07001447677612305, -0.1636504977941513, -0.1148621067404747, 0.03427360951900482, 0.03694382309913635, 0.10183215141296387, 0.08959439396858215, 0.03498844802379608, -0.09277976304292679, 0.14983564615249634, -0.17648951709270477, 0.06264171004295349, -0.1076260507106781, -0.003560096025466919, 0.06835520267486572, 0.13366928696632385, },
{-0.0038781464099884033, -0.03264889121055603, -0.10848014056682587, -0.04962027072906494, -0.019199848175048828, -0.16435380280017853, 0.10059875249862671, 0.08784863352775574, -0.0594809353351593, -0.05421003699302673, 0.16423219442367554, -0.027928516268730164, -0.15813180804252625, -0.006514564156532288, 0.17949581146240234, 0.1264808177947998, 0.03820420801639557, 0.13576284050941467, 0.06481540203094482, 0.07572907209396362, 0.0775337815284729, 0.062272727489471436, -0.10362531989812851, -0.032640084624290466, -0.13184571266174316, -0.08199663460254669, -0.050445929169654846, 0.12338912487030029, -0.0831066370010376, -0.023485809564590454, -0.04200534522533417, 0.0737009346485138, -0.17378181219100952, -0.1126820296049118, -0.1243770569562912, -0.12093321979045868, 0.1730743646621704, 0.051910191774368286, 0.08464473485946655, -0.15728852152824402, },
{-0.16165673732757568, -0.17700178921222687, -0.15872496366500854, 0.003072283463552594, -0.17788468301296234, -0.13589249551296234, 0.21815022826194763, -0.5917718410491943, -0.11458741873502731, -0.19141866266727448, -0.1558457911014557, -0.0990622341632843, 0.2940899431705475, -0.24232737720012665, -0.07854839414358139, -0.3207758665084839, -0.07547026127576828, 0.1846173107624054, -0.16822393238544464, -0.08752088248729706, 0.26748567819595337, -0.04173963516950607, -0.2963298559188843, 0.3629171550273895, 0.28325918316841125, -0.4135625958442688, -0.02834053710103035, 0.6643681526184082, -0.22858697175979614, 0.3183247745037079, -0.21305453777313232, -0.11877181380987167, 0.0742420181632042, 0.13656242191791534, 0.08858846873044968, -0.0710429921746254, 0.5891317129135132, 0.002891112118959427, -0.6586098670959473, -0.07926546037197113, },
{0.2504362463951111, 0.06127249822020531, 0.18497587740421295, 0.0684748962521553, 0.03530387207865715, 0.13383165001869202, 0.13377271592617035, -0.11271065473556519, 0.09779604524374008, 0.30080947279930115, -0.10705749690532684, 0.13135245442390442, 0.2943101227283478, -0.005725612863898277, -0.3573574423789978, -0.14254340529441833, 0.05164323002099991, 0.2496703565120697, -0.11422742158174515, -0.0671970397233963, -0.021193308755755424, -0.07701275497674942, 0.203110933303833, 0.12322071194648743, 0.22050972282886505, -0.2407488226890564, 0.049576252698898315, -0.1106029599905014, -0.3875647783279419, 0.2642940282821655, -0.04812454804778099, 0.022952811792492867, 0.01089501567184925, 0.15460136532783508, -0.16440951824188232, -0.38842156529426575, 0.41648682951927185, 0.29365575313568115, -0.21337822079658508, 0.05398089438676834, },
{-0.005478684324771166, -0.1065838411450386, -0.31426963210105896, -0.0974869653582573, 0.24237510561943054, 0.12062807381153107, -0.018013684079051018, -0.12559975683689117, 0.2162601798772812, -0.44781219959259033, 0.07686685770750046, -0.3441280424594879, 0.19397734105587006, 0.16711385548114777, 0.7327449917793274, 0.14872564375400543, -0.20395894348621368, -0.12128455191850662, -0.03376305475831032, -0.4264968931674957, -0.16391897201538086, 0.04327849671244621, 0.19752171635627747, 0.546295702457428, 0.0893947184085846, 0.09184256196022034, -0.1683381050825119, -0.17672374844551086, -0.16946130990982056, 0.20927585661411285, 0.03440403193235397, -0.11114272475242615, -0.004900190979242325, 0.010695469565689564, -0.0871059000492096, -0.006572186481207609, -0.28377455472946167, -0.4953121840953827, 0.0036709348205477, -0.21373926103115082, },
{-0.17681002616882324, 0.0136491060256958, 0.10776931047439575, 0.1447603702545166, -0.1639855057001114, 0.04165205359458923, -0.11033915728330612, -0.0159623920917511, 0.11181995272636414, -0.18195410072803497, -0.11884797364473343, -0.14811503887176514, -0.05049130320549011, 0.09122985601425171, 0.011558040976524353, -0.17583787441253662, 0.1666816771030426, -0.04539516568183899, -0.08735895156860352, 0.06275025010108948, -0.02915063500404358, 0.06488615274429321, 0.12101352214813232, -0.1595265418291092, 0.0964398980140686, -0.032670363783836365, -0.06892002373933792, 0.0977695882320404, -0.008184105157852173, -0.08642373979091644, -0.10473615676164627, -0.06187371909618378, 0.0368901789188385, 0.14861547946929932, -0.07117278128862381, -0.14633433520793915, 0.1060691773891449, 0.043586328625679016, -0.06539174914360046, 0.1927315592765808, },
{0.020288921892642975, 0.10460339486598969, -0.00819441955536604, 0.05830936133861542, -0.14068979024887085, -0.08636067807674408, 0.23825868964195251, 0.19668437540531158, -0.043886784464120865, 0.21163545548915863, -0.20040841400623322, 0.13185720145702362, 0.01847049593925476, -0.08802463859319687, -0.09303620457649231, -0.09415851533412933, 0.01617310754954815, 0.11164163798093796, 0.10912146419286728, 0.11263281852006912, 0.16869911551475525, 0.1715562790632248, -0.165888249874115, 0.09990955144166946, -0.01204966101795435, -0.06356483697891235, 0.051688723266124725, -0.04973999410867691, -0.0037015448324382305, -0.13870182633399963, -0.10963740944862366, 0.19694679975509644, -0.15314500033855438, -0.037475403398275375, -0.03497125580906868, -0.03249594569206238, 0.1875658631324768, 0.11697929352521896, -0.11880771815776825, -0.03814254328608513, },
{0.059952616691589355, -0.06700021028518677, -0.11459959298372269, -0.02358156442642212, 0.06456080079078674, 0.1800416111946106, -0.016505345702171326, 0.09130740165710449, 0.07495850324630737, 0.06549188494682312, 0.06775373220443726, -0.16465076804161072, -0.018706977367401123, -0.05057211220264435, 0.16254791617393494, 0.19196048378944397, 0.08975818753242493, -0.07703635841608047, -0.1344180554151535, -0.030325084924697876, -0.17737717926502228, -0.14366590976715088, -0.18239617347717285, -0.11593832075595856, -0.08734546601772308, -0.1609397530555725, 0.10588830709457397, 0.0861855149269104, -0.07137172669172287, -0.0948777049779892, -0.0011126846075057983, 0.10299324989318848, -0.024701863527297974, 0.1307443082332611, 0.05847027897834778, 0.052754953503608704, 0.031938955187797546, 0.06907433271408081, 0.18370592594146729, 0.00943918526172638, },
